<?xml version="1.0"?>
<opencv_storage>
<my_nn type_id="opencv-ml-ann-mlp">
  <layer_sizes type_id="opencv-matrix">
    <rows>1</rows>
    <cols>3</cols>
    <dt>i</dt>
    <data>
      210 80 2</data></layer_sizes>
  <activation_function>SIGMOID_SYM</activation_function>
  <f_param1>1.</f_param1>
  <f_param2>1.</f_param2>
  <min_val>-9.4999999999999996e-001</min_val>
  <max_val>9.4999999999999996e-001</max_val>
  <min_val1>-9.7999999999999998e-001</min_val1>
  <max_val1>9.7999999999999998e-001</max_val1>
  <training_params>
    <train_method>BACKPROP</train_method>
    <dw_scale>1.0000000000000001e-001</dw_scale>
    <moment_scale>1.0000000000000001e-001</moment_scale>
    <term_criteria><epsilon>9.9999997473787516e-005</epsilon>
      <iterations>10000</iterations></term_criteria></training_params>
  <input_scale>
    1.0532437749377482e-002 -1.2109173617620854e+000
    1.0578407855649475e-002 -1.2280110132273396e+000
    1.0431978812074683e-002 -1.2283560705156333e+000
    1.0317775482020914e-002 -1.2663643045037809e+000
    1.0230808993611951e-002 -1.3185900184629860e+000
    1.0522947696717098e-002 -1.4979348068578491e+000
    1.0601590657199175e-002 -1.4694516902446755e+000
    1.0490409749211218e-002 -1.2558240284892945e+000
    1.0599252674550834e-002 -1.1965898951572571e+000
    1.0537800737415387e-002 -1.1925114457752795e+000
    1.0396335728435332e-002 -1.2379295733072164e+000
    1.0543257298134854e-002 -1.2526179733392595e+000
    1.0459181380339667e-002 -1.2884252039920749e+000
    1.0571037003104645e-002 -1.3711290561212963e+000
    1.0564160613153569e-002 -1.4100233578287127e+000
    1.0510566101403310e-002 -1.4909088639870163e+000
    1.0449669027254626e-002 -1.5122021168875075e+000
    1.0470173994455710e-002 -1.3175131271302418e+000
    1.0580128716753141e-002 -1.2401387153064927e+000
    1.0473652545234302e-002 -1.2159829413912022e+000
    1.0545676275348572e-002 -1.2815203909117774e+000
    1.0469575006552356e-002 -1.2883393688618594e+000
    1.0424779081218980e-002 -1.3651773486422363e+000
    1.0502891003143600e-002 -1.4503651158490931e+000
    1.0561116371150318e-002 -1.4813371130417170e+000
    1.0525624201593468e-002 -1.5510010423962004e+000
    1.0453415000287149e-002 -1.5890784473524366e+000
    1.0505279046997053e-002 -1.4156637160409509e+000
    1.0454598408591037e-002 -1.2971617265241302e+000
    1.0411039957680418e-002 -1.2504331536975066e+000
    1.0503735597133905e-002 -1.2640987947511966e+000
    1.0465029957455487e-002 -1.3248646801875410e+000
    1.0078430206678458e-002 -1.3232926776458187e+000
    1.0096798758587251e-002 -1.3127038522449976e+000
    1.0363466832368728e-002 -1.3755426848704606e+000
    1.0425423054620226e-002 -1.4274289897211325e+000
    1.0620149876171839e-002 -1.5936701184724882e+000
    1.0560311326771661e-002 -1.5580061173642294e+000
    1.0498265911508899e-002 -1.3626532134721776e+000
    1.0527264690535861e-002 -1.2557911484201241e+000
    1.0539188430481985e-002 -1.2419602957449298e+000
    1.0343467229575498e-002 -1.2841775384142269e+000
    1.0099216011917607e-002 -1.1951991563375297e+000
    1.0341200030431990e-002 -1.1678020586303959e+000
    1.0442784107814280e-002 -1.1938476821798873e+000
    1.0538810596068888e-002 -1.2090330479532527e+000
    1.0484972263655150e-002 -1.2737128050117323e+000
    1.0517559120436960e-002 -1.4252923237513078e+000
    1.0405830302114404e-002 -1.3734996899080796e+000
    1.0523789380534967e-002 -1.2318571351864911e+000
    1.0694049562033982e-002 -1.2388158338518782e+000
    1.0374402230360524e-002 -1.2197321419163485e+000
    1.0445089558126527e-002 -1.1819415036937388e+000
    1.0619073224763452e-002 -1.1385265425422548e+000
    1.0973443866035534e-002 -1.1191977023336661e+000
    1.0952014861401028e-002 -1.1125237814803188e+000
    1.0579325876790856e-002 -1.1674272436659023e+000
    1.0404410468739472e-002 -1.3333856923275025e+000
    1.0435840052822097e-002 -1.3714176959131505e+000
    1.0545318218631966e-002 -1.2632936990425379e+000
    1.0607851552603501e-002 -1.2366699125151068e+000
    1.0421591517056272e-002 -1.2321741178645438e+000
    1.0484046329610249e-002 -1.2130068693918050e+000
    1.0611485572393851e-002 -1.1691115114842006e+000
    1.0885210871777903e-002 -1.1008998502389518e+000
    1.0986541073364794e-002 -1.0865092952662327e+000
    1.0618899165341384e-002 -1.1659661039608564e+000
    1.0433539878416912e-002 -1.3414728438302146e+000
    1.0526527914588048e-002 -1.3888325565946176e+000
    1.0459895104252321e-002 -1.2930673685531975e+000
    1.0627148956335616e-002 -1.2325131200692350e+000
    1.0492632924245248e-002 -1.2724120418294553e+000
    1.0398583751556823e-002 -1.2567561729833749e+000
    1.0662678411223528e-002 -1.1824937910187490e+000
    1.1110597225695793e-002 -1.1058489385993886e+000
    1.1056875085255229e-002 -1.0995048011135093e+000
    1.0661283512029465e-002 -1.2202899598161683e+000
    1.0490108881468958e-002 -1.3971334187769155e+000
    1.0466934104511544e-002 -1.3976710775850971e+000
    1.0612223406101066e-002 -1.3166643165657999e+000
    1.0588905365118539e-002 -1.2434028965368586e+000
    1.0512793686802071e-002 -1.2977323938055605e+000
    1.0509377534992721e-002 -1.2949725604255216e+000
    1.0715151990593202e-002 -1.1944819510505928e+000
    1.0972777557605425e-002 -1.1204708618125354e+000
    1.0897975824918818e-002 -1.1355775289998160e+000
    1.0639864304855138e-002 -1.2472642791042627e+000
    1.0379717758736810e-002 -1.4159168787818563e+000
    1.0441389495483301e-002 -1.4132784916653931e+000
    1.0534938398344474e-002 -1.3031909353193429e+000
    1.0630698830496858e-002 -1.2247086973346797e+000
    1.0587884976668746e-002 -1.2968681717120143e+000
    1.0657009291736337e-002 -1.2987755052571666e+000
    1.0828912842385770e-002 -1.1739464916814906e+000
    1.1004798324683630e-002 -1.1143794330396946e+000
    1.0989501471319975e-002 -1.1213834963886973e+000
    1.0703525636367357e-002 -1.2574761899880811e+000
    1.0487083093103944e-002 -1.4511629947510727e+000
    1.0511667049310884e-002 -1.4048557811135216e+000
    1.0636590233028894e-002 -1.2919664240488871e+000
    1.0683064739382289e-002 -1.2342666424477027e+000
    1.0624610537987873e-002 -1.2959142210075210e+000
    1.0723362697472701e-002 -1.3085993818306572e+000
    1.0982862780414937e-002 -1.1726348669617290e+000
    1.1111325684797545e-002 -1.1077216498974445e+000
    1.1030803437304119e-002 -1.1233889934696346e+000
    1.0540678177584721e-002 -1.2755119412396529e+000
    1.0411430634551612e-002 -1.4634059393047611e+000
    1.0537258956225391e-002 -1.3691520716026133e+000
    1.0594716693898318e-002 -1.2680342796976498e+000
    1.0719228045949773e-002 -1.2268170347721357e+000
    1.0650772825390804e-002 -1.2912837349518314e+000
    1.0784083089065656e-002 -1.3064568339305851e+000
    1.1016477532374251e-002 -1.1865344095721537e+000
    1.1279685807028175e-002 -1.1339086322983534e+000
    1.1028718392084953e-002 -1.1657526328315844e+000
    1.0584188071749667e-002 -1.3242870476997544e+000
    1.0389148909866310e-002 -1.4773181832407751e+000
    1.0478747828825172e-002 -1.3419620591575454e+000
    1.0727962245617766e-002 -1.2557065948079258e+000
    1.0688617179931163e-002 -1.2140252917295509e+000
    1.0735593780514634e-002 -1.2554735985539978e+000
    1.0773259369593967e-002 -1.2946562622783118e+000
    1.1083628977982143e-002 -1.1891846057461875e+000
    1.0979648497031298e-002 -1.1721980545932651e+000
    1.0925524056143956e-002 -1.2329580938335851e+000
    1.0525129743875950e-002 -1.3978405775139269e+000
    1.0459622250764803e-002 -1.4830798390915818e+000
    1.0633728838460844e-002 -1.3398223563105665e+000
    1.0864737844996081e-002 -1.2322690211317364e+000
    1.0770859626714802e-002 -1.2048138853714343e+000
    1.0825718394769715e-002 -1.2197759314218461e+000
    1.0838195971749082e-002 -1.2518424409787992e+000
    1.1101954025391584e-002 -1.2149267042339893e+000
    1.0776834855808354e-002 -1.2428976548728907e+000
    1.0767043811062799e-002 -1.2814089760640492e+000
    1.0555899950994742e-002 -1.4337176060313732e+000
    1.0536247236711789e-002 -1.4502885679605744e+000
    1.0681004540744221e-002 -1.3088536083621893e+000
    1.0916463358726597e-002 -1.2189909710999756e+000
    1.0807346593779396e-002 -1.1955634150858505e+000
    1.0827719361112960e-002 -1.1820568067181318e+000
    1.0903604934360194e-002 -1.2103762193763143e+000
    1.0932274035286658e-002 -1.2289401449248523e+000
    1.0649884837382263e-002 -1.3057887093003606e+000
    1.0742373507472378e-002 -1.3332284813332056e+000
    1.0523397872526060e-002 -1.4463363474448330e+000
    1.0556584548980622e-002 -1.4229075740190853e+000
    1.0723133371856231e-002 -1.2632931737890316e+000
    1.0928367579320964e-002 -1.1958966295535169e+000
    1.0821700624102669e-002 -1.1805049265309890e+000
    1.0785252207368019e-002 -1.1753862609743426e+000
    1.0878302907642684e-002 -1.2067917009333500e+000
    1.0825180520399665e-002 -1.2573712908849750e+000
    1.0633259827066439e-002 -1.3501382463521625e+000
    1.0725214714807602e-002 -1.3618528451825467e+000
    1.0510615851339888e-002 -1.4860354101735345e+000
    1.0604937933446553e-002 -1.4111445589523439e+000
    1.0711873495173765e-002 -1.2590105019106597e+000
    1.0887530662050808e-002 -1.1850022132361098e+000
    1.0866145522410831e-002 -1.1562701951661394e+000
    1.0849502197217732e-002 -1.1671961747501391e+000
    1.0747147441970644e-002 -1.2053578460730507e+000
    1.0764872674012348e-002 -1.2713843135969323e+000
    1.0620665939206046e-002 -1.3463107422377434e+000
    1.0641025767279709e-002 -1.3487376427169271e+000
    1.0633087647967986e-002 -1.4994604356820920e+000
    1.0633211262961302e-002 -1.3961763576243431e+000
    1.0734385213252708e-002 -1.2433524669049696e+000
    1.0943420323811653e-002 -1.1599573102090015e+000
    1.0889066057406383e-002 -1.1662077198995855e+000
    1.0846341822474929e-002 -1.1683415959973271e+000
    1.0719669634494330e-002 -1.1936781478782912e+000
    1.0739040113896040e-002 -1.2789947030531257e+000
    1.0643537594813342e-002 -1.3710444074943626e+000
    1.0621564846425057e-002 -1.3696494146513114e+000
    1.0585668523727200e-002 -1.4761427548276860e+000
    1.0577236250033092e-002 -1.3786320531845460e+000
    1.0789296666882230e-002 -1.2379421536888160e+000
    1.0931277289510589e-002 -1.1717086421795304e+000
    1.0851946859896112e-002 -1.1804983340328383e+000
    1.0709460657691424e-002 -1.1869458517766642e+000
    1.0687011612727905e-002 -1.2018497276602036e+000
    1.0673820097182277e-002 -1.3187380615881525e+000
    1.0690679432204019e-002 -1.4172636485722334e+000
    1.0590293045629350e-002 -1.4303463235193810e+000
    1.0720544350063210e-002 -1.5367997281643064e+000
    1.0645321869473860e-002 -1.4252435545726356e+000
    1.0712288457236499e-002 -1.2414711911979177e+000
    1.0961893186063779e-002 -1.1899149216124927e+000
    1.0806594037520935e-002 -1.1776143783197328e+000
    1.0709501917471210e-002 -1.1974800512232284e+000
    1.0630813354866315e-002 -1.2363773280719277e+000
    1.0539812053034564e-002 -1.3607768869474592e+000
    1.0675804730060318e-002 -1.4798292933328907e+000
    1.0662723307438117e-002 -1.5188787605007819e+000
    1.0706800896737654e-002 -1.5794108293362754e+000
    1.0586196887410899e-002 -1.4399388773478579e+000
    1.0603032725197123e-002 -1.2483112075677101e+000
    1.0798322184447654e-002 -1.2008320224573164e+000
    1.0936110418412004e-002 -1.0889511849729934e+000
    1.0865515673494664e-002 -1.1140213878532059e+000
    1.0720901027159708e-002 -1.1881085355370169e+000
    1.0708095391992587e-002 -1.3384593519545132e+000
    1.0740196524935793e-002 -1.4578470788978999e+000
    1.0678870963628470e-002 -1.4921418074188972e+000
    1.0570365192524245e-002 -1.4957968096391712e+000
    1.0547590966809767e-002 -1.3459734499659008e+000
    1.0750824649907648e-002 -1.1606945874871095e+000
    1.1031507658416215e-002 -1.1093934019583997e+000</input_scale>
  <output_scale>
    5.2631578947368418e-001 4.9999999999999994e-001
    5.2631578947368418e-001 4.9999999999999994e-001</output_scale>
  <inv_output_scale>
    1.8999999999999999e+000 -9.4999999999999996e-001
    1.8999999999999999e+000 -9.4999999999999996e-001</inv_output_scale>
  <weights>
    <_>
      -2.6440424163513061e+000 6.8157475089791386e-001
      -7.6991479850924061e-001 2.7664169201302830e-001
      1.1995080446691884e+000 1.1605304524688966e+000
      7.4940118984058435e-001 6.3460132368497868e-001
      1.8703585572209818e+000 -5.6958407220300655e-001
      -8.9277175672388764e-001 1.4499813146212190e+000
      -4.0878760136626641e-001 1.2588651965637241e+000
      -1.4515163947335803e+000 9.8599897295423966e-001
      1.0178974865557512e-001 1.6634967324936318e+000
      8.4442454110212040e-001 1.5382212103690487e+000
      4.1489639661203848e-001 7.8499143545288097e-001
      6.5542351137320731e-001 2.3383429519128556e+000
      6.2634333021017063e-001 -6.2874402165887622e-001
      9.7115768763963717e-001 -1.7263023120677623e-001
      -8.3552426670801339e-001 3.1663312376748229e-002
      -5.6498209073353312e-001 2.2692340607029817e+000
      3.7534736825711690e-001 -2.0832991157729808e+000
      -1.9187799550535942e-001 4.7958270896107097e-001
      4.7112659877343220e-002 -3.2446880078127611e+000
      4.1558268100002593e-001 8.2674014985083832e-001
      6.3673280725059556e-001 1.2496603950417355e+000
      2.2579804453052219e+000 -1.3133709088437220e+000
      3.4067440159458345e-001 9.8172707022630878e-001
      7.2039937159979150e-001 5.3078399051906111e-001
      -1.4272160125669260e+000 -1.5003123306496822e+000
      1.4464418283177634e+000 -7.5739187239336681e-001
      -9.0111774485134988e-001 1.7855716508462898e+000
      4.3798667783131817e+000 -2.8476532694266514e+000
      -1.8908193149326811e+000 2.0709821265416664e+000
      -3.7069475114788059e-001 -2.0040686055765726e+000
      7.5614564782326543e-001 -1.2141892059094772e+000
      4.7163325676693851e-001 -2.7082890786585573e-001
      9.1489953147289593e-001 1.9868753278544096e+000
      1.5456198985816867e+000 -2.4631319760656343e+000
      1.0924799350040535e+000 -8.8295626468722979e-003
      7.3451126983045800e-001 2.5608638416286744e-001
      -7.2734517009462119e-001 -2.3288632638525647e-001
      1.5585809928395717e+000 2.4211865837255961e-001
      -2.5648121515309139e+000 -1.1398153958872241e+000
      3.7468235014578027e-001 3.2413961945888031e-001
      -3.8042423804335259e+000 1.8799390773194853e+000
      1.2025012777197637e+000 -8.9015703343398067e-001
      8.3189804769634212e-001 9.6349419065146735e-001
      2.2585269357237370e+000 1.9572344272890232e-001
      4.3395916201070381e+000 -1.7715193911413631e+000
      -2.8540228751956285e+000 -8.8457083216637966e-001
      7.7689303771791882e-002 6.7581166315264019e-001
      -1.4712717235796653e+000 3.4286154418225129e-001
      -1.5509012194124894e-001 -6.2188630059169081e-001
      1.4193628861124841e+000 7.8343623698060860e-002
      -1.3787191740394018e+000 -1.3288984502404702e+000
      3.9529585951354479e-001 2.1746605837009669e+000
      -6.0479015062880626e-001 7.2799354292630250e-002
      3.1455186339680247e-001 1.8660138733295029e+000
      -3.8626529847628815e-001 -1.6761392835576358e-001
      -2.6567821553899462e-001 3.7692801206497145e-001
      -4.3915888883279375e-001 -3.7107515596044632e-001
      -2.6159010110691555e-001 1.8253304822256153e+000
      -1.0901792239066082e+000 -1.0982562872108864e-001
      -3.1047917257893225e+000 -7.1685470145888874e-001
      -4.6941670749519382e-001 8.5038119591528094e-001
      5.7594526338168295e-001 8.2777203403333477e-001
      -1.5850101734050024e+000 -1.1619562851448957e-001
      -2.9084293729930288e-001 -4.8082660319256210e-001
      -1.0598372272502088e+000 9.2232486988032436e-001
      1.8918618526929698e+000 -6.0848578462495784e-001
      -7.2949482418931000e-001 -2.4389866819914827e-001
      2.4830199484168021e+000 -2.1047251194032258e-002
      -6.9557950326189943e-001 3.6133337137363619e+000
      4.3400133641424682e-001 2.0116904660313715e+000
      7.2292169270964735e-001 -6.5535762604762271e-001
      3.3367420403479109e-001 1.1673306913455279e+000
      -2.1400811211777699e+000 1.8075939213620460e+000
      -1.2663144338301631e+000 -5.1326345673272344e-001
      5.7870443510816205e-001 1.8462920409304451e-001
      1.2162713390508165e-001 2.0159382617477970e+000
      -4.9021215828256715e-001 4.5402528107144027e-002
      -8.5240131667038821e-001 -6.5627205653329801e-001
      -3.6739433528266403e+000 -3.4209821821789466e-001
      5.9524132002634766e-001 -1.4052507735999018e+000
      -5.6035923822306835e+000 1.5028863060590234e+000
      -2.7229879920814903e-001 6.7236827121495868e-001
      -2.5052829670760507e-001 2.2702956488785016e-002
      2.6004010301391894e-001 -3.1176293182128441e+000
      2.0743749377695448e+000 -1.1893451352562985e+000
      -7.6002036600351242e-001 -3.0091721098574320e+000
      -2.6532720829834122e-001 1.8700536413243334e+000
      1.7985403874805252e+000 -2.9521903930368310e-001
      8.1898368787074816e-001 -1.6565208818107992e-002
      9.6071471440061201e-002 1.4330454003904345e+000
      -6.0393715911750079e-001 -9.1568410255585309e-001
      8.0701218320019918e-001 1.2717865772177064e+000
      -4.3421166378751298e-002 4.3787380122484676e-001
      1.4073494878804649e-001 -2.1882238247658918e+000
      -1.2703402605601191e+000 -7.6500851213435628e-001
      9.5947442486000956e-001 2.0607907203086548e+000
      4.9261418100054355e-001 -2.9491577347373399e-001
      1.4399143238663743e+000 1.0691784637076489e-001
      -2.1264380343010485e+000 4.8061475383207275e-001
      -1.4800149408150975e+000 -2.4900749908518996e-001
      5.2707224795552510e-001 1.0998996742260054e+000
      -2.1643521927649463e+000 -5.2917029140016436e-001
      -1.3361818090035393e+000 -4.6620414401197831e-003
      1.1782778038989172e+000 -1.3140558402483968e+000
      -1.5006247319280528e+000 -2.8727479632540440e+000
      3.9718260600565986e-001 1.9864761827850858e-001
      4.5948154458934021e-001 1.5186780055977700e+000
      1.0402678678369230e+000 -2.1876654122544053e+000
      4.7427155729872444e-001 4.7394447215341967e-001
      -2.2549322026792518e+000 2.8345982549102438e+000
      3.9259352758116484e-001 -1.6279035002611499e+000
      -8.6713785851256997e-001 1.4339998477911109e+000
      7.0481814310064306e-001 2.1155065069847998e+000
      -9.6249136733250451e-001 -2.9817256819939892e+000
      -2.0499162344147588e+000 4.7915725147258996e-002
      1.8159500233735619e+000 -5.8864688343621629e-001
      -2.1394392456245567e-001 1.4733211368207624e-001
      -2.2306731790695419e-001 -3.1711593396952531e-001
      9.0780019623673769e-001 -3.2709004353102533e-001
      -9.6296588196940855e-002 -8.8964175139649959e-001
      -8.6099620099561136e+000 1.1819803435895671e+000
      -2.5333275551240395e+000 6.4200497784144084e-001
      -3.6441395567842171e-002 -1.2751748878384022e+000
      1.2270338221945674e-001 -3.1094398855062633e-001
      1.7174984031110747e+000 -8.8577155897067006e-001
      -1.2830214988670801e+000 -1.8712965931721111e+000
      -1.4355690489588910e+000 2.5348927194797604e+000
      1.3157547153809732e+000 -6.7252202662714899e-001
      -3.4251529101578354e-001 -4.8717987716165706e-001
      5.4346225515693493e-002 3.9914354898460747e-001
      -6.6085363319838053e-001 8.2935540051700940e-001
      8.5464043840964321e-001 1.9668634647696410e+000
      -4.0570473845810262e-001 8.2277447662048447e-002
      -2.1823944959760563e-001 -4.9273473443142346e-001
      -4.7420977586108004e-001 1.3534831235746581e+000
      5.4669105394468259e-002 4.6193939172451532e+000
      1.7242236672172451e-001 -4.9270141273063001e-001
      6.4473793946093561e-001 1.6668982806565727e-001
      -2.9055620282993453e+000 -2.6633939984299908e+000
      9.2176857393211686e-002 3.0423707722133013e+000
      5.4435679549342919e-001 6.4793069545816806e-001
      5.5890247652500347e-001 -2.6547852596998173e-001
      -1.9553429827486049e+000 3.4581769951792268e-001
      9.9730688794599565e-001 9.1379653708531627e-001
      4.3843404068404601e-001 -2.4743110730698996e+000
      -7.2445395842254878e-001 -6.1843669044363780e-001
      5.9482645146875968e-001 -1.3177916306753668e-001
      1.5148666340009258e+000 -3.7942166089342040e+000
      1.5369869618341570e+000 1.0278665875189018e-001
      1.6527296672660556e+000 1.9764799212431603e-002
      1.5479274694063898e+000 -7.9571070601794014e-001
      1.2506945156840559e+000 3.7435671873375581e-001
      3.2442636548014998e+000 2.1806426868590028e+000
      2.7234682324269643e+000 -4.5655577903626296e-005
      1.5179698264418895e+000 1.7099353184181763e+000
      2.9211265829036384e+000 1.9555103589499532e+000
      -1.3520835345996163e+000 6.7743552632683013e-001
      -7.3862593234667362e-001 4.5161550069800022e-002
      7.1687171067671229e-001 -2.4906419309040437e+000
      6.9545958910211692e-001 4.3297149152814754e-002
      -7.3854846790554580e+000 1.4971334785268253e+000
      -6.2068841116632134e-001 -1.7316519112402471e+000
      -1.4591134588365792e-001 -1.6586180302915539e+000
      -6.9684048094238282e-002 -4.2247889300121283e-001
      2.7831486012469173e+000 -7.2817814179315399e-001
      -6.3437334491065336e+000 -1.4774285097567010e+000
      -1.6067838079980545e+000 2.2176102006010341e+000
      2.0155474034541072e+000 -6.5571415061155477e-002
      2.6568206190622834e-001 -1.6258060160514706e-001
      2.5057253564292283e+000 -1.7178235585285939e-001
      -3.6278093677220841e-001 -1.6282733358943355e+000
      -3.2472167717178896e-001 -5.1077127375803599e-001
      -2.0056370677239518e-001 7.4020416286362256e-001
      -4.6568157996142706e-001 -2.2541082618556016e-001
      -2.9710794254764568e+000 5.5894107865401854e-001
      -1.4218903205517206e+000 1.5799226001907547e+000
      3.1496731105105819e-001 8.4603523401961545e-001
      -2.2071097637647528e+000 -4.9755963050493823e-001
      -3.6780447910540750e+000 6.8151236245925684e-001
      -5.5210428183937676e-001 1.8915921353856211e+000
      -1.8446196644666124e+000 -3.0347700984687570e-001
      2.4157669497979968e+000 -1.0101465943269083e+000
      -6.8459722509542131e-001 -7.3816526076220279e-001
      -3.5279604801895054e-001 -5.2619608159577624e-001
      1.4887163170475135e+000 -1.2824665809414091e+000
      -6.1858576627117556e-001 1.4045713892364839e-001
      1.4579072126401200e+000 -4.3820577479190180e-002
      2.4971538008631375e+000 -8.5712968346257823e-001
      -3.3092875014018019e-001 1.1908474430326783e+000
      1.2482773201660606e+000 2.9145765717387406e+000
      -1.0979625644081010e+000 1.3556616999043722e+000
      3.1384855541951522e+000 -2.5390435503853476e-001
      2.4057993468148844e+000 9.9193287616070502e-001
      4.9688540152078947e-001 -1.2061751296826155e+000
      -7.3978895117498611e-001 1.0153704967312347e+000
      2.2688663158047726e+000 -6.9436194697461440e-001
      5.6781747187759457e-001 -6.4738221445995814e-001
      -4.5753425842666301e-001 -8.5321638477189676e-001
      1.8404757289916513e+000 -3.3343751079933748e+000
      4.4905841093974730e-001 -1.1531342320651048e+000
      -9.7089585836146544e+000 3.5718566490636201e+000
      8.0284064790263909e-001 -2.9969408825353456e+000
      3.3400772977725240e-001 -1.6272610788952653e+000
      1.8723057015250555e-001 2.3937672933877138e-001
      2.6159386585007711e+000 -1.3809910140943267e+000
      -4.2632315495924473e+000 -2.7783764752422582e+000
      -1.1792366654379396e+000 1.4533922390881757e+000
      9.2141819144820314e-001 -1.3206475076532542e-001
      -6.3162969526661095e-001 -9.4441736626166306e-001
      1.7324689497486210e+000 1.5964235024298488e+000
      -8.1261615945453358e-001 9.6184627523672506e-001
      1.0792741950427014e+000 -9.6082334748408360e-001
      1.0706753342179105e+000 7.8109768580587369e-001
      -1.1740322747717047e+000 3.3022808029701762e+000
      -1.2633664911539828e+000 -9.5003008828509661e-001
      -2.0715477877680577e+000 2.6129027005007615e+000
      -3.1448985717921074e-001 1.2621021001084625e+000
      -1.5552437209216565e+000 1.9373772309911073e+000
      -2.9861290349760248e+000 -1.6071704755374496e+000
      5.0998379371137503e-001 2.5983593926155750e+000
      -1.3263009402107695e+000 1.2977562414555233e+000
      3.5712809735266904e-001 9.1129376882794835e-002
      1.5310443411665526e+000 8.9941784674660463e-001
      -1.1405766815370439e+000 -9.9546169360788070e-002
      1.8284915629952014e+000 -5.1856500071629806e-002
      -5.3777056461529193e-001 -1.7927989598867319e-001
      6.1049865781709955e-001 -2.2003833959376524e+000
      -2.3736437541671749e+000 9.8025815649367654e-001
      -2.1980677193608256e+000 -3.8348442008467465e-001
      2.5572673224326703e+000 -2.0757024855758583e+000
      -6.5772592049751932e-001 1.5563512623242686e+000
      1.2223441773309069e+000 5.3285818282811670e-001
      1.9790562180744353e+000 -2.4474263698690759e+000
      -2.1231272616819239e+000 -1.8285774554430696e+000
      -2.4959328411565154e+000 4.2100860714862953e-001
      6.6703444562041669e-001 -1.9210977348495286e+000
      -4.8130864131898682e-001 -2.9830205387951936e-001
      -5.3181004441195467e-001 5.0871053279934642e-001
      1.1500601292035035e+000 -2.0352887796641039e+000
      1.7363819200154668e-001 2.1620234319365554e+000
      -8.7755227202022059e+000 2.8678104184903397e+000
      1.2059325497081976e+000 -1.0997696586500565e+000
      -1.0099779966227243e+000 -1.2181967137671057e+000
      1.0656691091072699e+000 -4.0628578950184729e-001
      2.2713580419291253e+000 7.2740980646898901e-001
      -6.4241871536045059e-001 -2.1581494417616893e+000
      -3.3651316773156394e+000 2.3098503166057371e+000
      2.8593953226730120e+000 4.3793248599322809e-001
      8.6113702084877974e-001 -9.3872940029820018e-001
      3.8080260978646256e+000 2.7496121206268866e+000
      1.4263716478385091e+000 1.3213321571399621e+000
      8.5051386359738834e-001 1.3818020438316940e+000
      1.1664092738433289e+000 -2.1178509289166825e+000
      1.8637579436160359e-001 -1.5293890310711715e+000
      -1.5897213593383528e+000 -1.7682025777590245e+000
      -1.4661563436847940e+000 1.3221207101536845e+000
      3.3932357185420764e-001 2.3762628481448198e-001
      -1.5650544011973089e+000 -2.0082867293338541e-001
      -2.1756830535050078e+000 -3.9463523487675345e-001
      -7.6422481502843298e-001 2.2750639494820111e+000
      -1.0965214273196957e+000 7.8191413715247005e-001
      -1.9645074343303983e+000 -9.2126461990072128e-001
      -2.9732388678098959e-001 -1.0168520179977094e+000
      6.7622160096379991e-001 2.8287547119590900e-001
      1.8115866993511034e-001 7.2454976652782288e-001
      -2.0530180118072039e+000 -8.5548143973480895e-001
      -7.7568312535547546e-001 -2.4217016246663967e-001
      -2.7370187757983619e+000 -6.4003486493643999e-002
      -6.5357520939184122e-001 3.0838359369310164e-001
      7.2138679932610117e-001 -9.5838111250883218e-001
      1.1947581940014278e+000 1.2926974012620314e+000
      1.3238513968423407e+000 -4.1111498837155563e-001
      9.3703196393783750e-001 -1.9192181882867232e-001
      2.9891036787101843e-001 3.0738843355997897e-001
      -3.1299311595156987e-001 1.4467343359693025e-001
      2.3828660055889392e-001 -2.0327837298820723e+000
      -1.1735647432112660e-001 2.5921033784096226e-001
      1.5829472986328135e+000 -3.6711670771666072e-001
      -3.6522348262546735e+000 -2.6196238175349182e+000
      1.6485661166262111e-001 2.2200549460957939e+000
      -2.0597398885833824e+000 2.4532860469862405e+000
      2.4635149540775911e+000 1.5280504085652191e+000
      -1.1613029506438199e+000 -7.1316632752657400e-002
      1.4505603220635016e-001 2.2462627385263498e-001
      1.7350375575036507e+000 -2.3586273934511737e+000
      -6.4907839112943888e-001 -4.1722310275066521e-001
      1.6904752037077209e+000 2.2048939897430202e+000
      4.7628523921292476e-001 1.1923644200504879e-001
      3.1100859208870936e-002 -2.0474366579637840e-001
      9.4344553583720114e-001 -1.2237456000236744e+000
      -2.2069887666618171e+000 1.8530313249092607e+000
      2.0369097159836116e-001 9.6316388226822724e-001
      -2.1956032954760574e-001 -1.9498815802217020e+000
      2.9518882140966468e-001 -9.6735582318094016e-001
      6.1591578152587023e-001 2.7276606407033649e-001
      3.4532276307089937e-001 -2.0459840058917638e+000
      7.7073718286595172e-001 8.5481541636376412e-001
      -6.1759614272981656e-001 -1.8229288224908446e+000
      1.0520670176871169e-001 -5.7463981468262737e-001
      -6.0250105928431807e-001 -1.2456916760122652e+000
      -2.1810473224334395e+000 6.3646115296769512e-001
      -5.6560882096908671e-001 -9.7678645327523705e-001
      -4.7611682373353871e-002 3.8254900450280316e-001
      1.6023493188726989e+000 -2.0919632771875155e-001
      7.4937120891661180e-001 -4.0229263347817124e-002
      -1.4869149824655958e+000 -7.1564414857446024e-001
      -1.9925236817543127e-001 -2.2480646486996418e+000
      3.1933245689274319e+000 -9.3038460590370842e-001
      4.8802144968494859e-001 1.6148261484235997e+000
      5.2149801795404349e-001 1.0421530205692768e-002
      -1.0918946076094915e+000 -1.2344439299580875e-001
      5.5700701477637748e-001 3.7117079484462617e-001
      4.0207348996049341e-001 2.8216173162224467e+000
      2.5155193455713487e+000 -1.9561471988787964e+000
      -4.0342433122091892e-001 4.5922273593739105e-001
      -3.5386324269154823e-001 6.2370719200066904e-001
      1.8537971010756231e+000 2.6822870638570789e-001
      1.2476384812011798e+000 -4.7728519927608165e-001
      -4.4442392426963284e-001 -1.9588685503645380e+000
      4.7919714650270778e-001 2.2313208194942464e+000
      -1.4352437352723857e+000 4.3174287788862437e-001
      -8.4976714937714276e-002 8.5101560867259496e-001
      -1.3898456063429072e+000 1.9076468046754020e+000
      -1.0220785585721015e+000 9.5571963903618906e-001
      2.1054310929665130e+000 4.6435790532854571e-001
      7.5876585786062312e-001 -8.9903357585131405e-001
      1.2028636810330504e+000 1.9325795488262287e+000
      -2.4360377427133337e+000 4.8860235403295660e-001
      8.4191428227164200e-001 1.2045617293580824e+000
      2.2663861708625563e+000 -1.1264253633359516e+000
      -3.1828246677522949e+000 9.8320689163723829e-002
      2.9825957027231254e-001 1.5244627569491027e+000
      -5.3828229688975138e-001 -1.5122422769035015e+000
      -6.2885006116446829e-001 -1.7444778482278751e+000
      1.7574447491476111e-001 -7.0288237053236702e-001
      7.4109359936962493e-002 -1.6238349249813664e+000
      9.9994416600928129e-002 2.3489413109178150e+000
      8.5748770816098130e-001 2.6505997280646854e-001
      -8.0697607084917256e-001 3.8832123677763486e-001
      -8.4106357882562721e-001 -2.4348740468451964e+000
      5.0817405627271806e-001 1.0182650261054491e-001
      -7.1572067205457168e-001 -2.4578545896767960e+000
      1.5229583036260079e+000 7.9105486337702424e-001
      1.3142961376881579e+000 -1.0487212841625266e+000
      -9.5302368179431096e-001 -1.5373390529087898e+000
      4.5882668550579481e-001 -8.7548972671749298e-002
      6.5978879441932781e-001 -4.0174980143672911e+000
      1.6984401773265692e+000 -1.6324674981332801e+000
      -7.1456356852208514e-001 2.6925591582346557e+000
      -4.3937050347032008e-001 -1.4952156740850536e-001
      -6.2935886565233568e-001 -4.1952412922608101e-001
      -5.7099284494597480e-001 -4.7369133104775846e-001
      7.5747485692022676e-001 8.1621581867884185e-001
      1.7135097034164765e-001 -1.2967763419754444e-001
      4.2324367507208327e-001 3.5889944871486629e-001
      7.4935265828246611e-001 -7.5625227181633148e-001
      7.7224436036401156e-001 3.5013707905655983e-001
      3.6192075196327317e-001 -2.9594487951214238e-001
      -1.6726801018556334e+000 -1.8560503141860731e+000
      3.5849865605102277e-001 9.9628132789843871e-001
      -4.7990201275556146e+000 8.5164679570994117e-001
      2.7249851840174868e+000 -8.9055641108766592e-001
      3.2023349995354639e-001 1.4974776259846283e+000
      2.8200255914569987e+000 8.5757741974799062e-001
      2.9592934778202742e+000 -1.1732009174314714e-001
      -2.6581067797329903e+000 -2.2962265437812386e+000
      7.2142268941953902e-001 2.5970829315428152e+000
      -2.6395109464287230e+000 -2.1745265140442493e-001
      7.2418254169385698e-001 6.2403954820603125e-001
      3.0865977881865954e+000 7.0551964577673421e-001
      -1.1548433794756310e+000 -2.5934304677624502e+000
      1.6574354411676691e+000 1.5831193184601648e+000
      2.0610748869044099e-002 -2.0861981217381889e+000
      8.3690011228778838e-002 -1.6213618291479437e+000
      6.6613409126704248e-001 -1.9111661850938677e+000
      -2.2669190757747666e+000 -4.0599513196835518e-001
      -1.4646251038893690e+000 4.6186797099309268e-001
      5.1612634766315102e-001 -4.8902211081846686e-001
      1.1382071892653316e+000 4.0096287210202669e-001
      -1.0096816223874594e+000 -1.4704938929575535e+000
      3.3410146246357669e-001 4.2500650614632579e-001
      6.3501185312779118e-001 -1.5317386740401702e+000
      6.0015408783250856e-001 -4.4740767161801531e-001
      -7.4727493426086666e-001 1.1732437793402137e+000
      -1.9206893530842256e-001 -2.5932237860120799e-001
      2.8168859727577327e+000 1.1331419060687284e+000
      2.2124167993564887e+000 -5.2755429198590531e-001
      1.3517362161777515e+000 -7.6783505496991689e-001
      7.3318258112764112e-001 1.1221741780476207e+000
      -1.5491443965718926e-001 1.8342918669801460e+000
      -1.0254853934985015e+000 -2.6266626811200938e-001
      1.2356010192224036e+000 -1.1357157872637330e-001
      1.2424477410121975e+000 3.2469257007409600e+000
      -3.4346551986517668e+000 -2.7504523563248786e+000
      -1.4086095926241031e+000 2.5422749289451407e-001
      -1.7884246237269703e+000 -1.0466729612457726e+000
      1.9756056329961704e+000 5.0361936714310085e-001
      3.7187738119481373e-001 -1.6003759817293202e+000
      -2.5146664070938725e+000 7.9762881817867082e-001
      2.6510359790809562e-001 1.3172721862791065e-001
      -4.1712081580323916e+000 -1.7871520832616680e-001
      -2.1439149680638389e-001 -1.1388686621877082e+000
      7.4946323711941554e-001 2.4237352199592412e+000
      2.3099722022114544e+000 -1.8386644667257435e+000
      5.7627454416601409e-001 -3.7616538622976486e-001
      -1.6445944138326018e-002 1.3534005677945585e-002
      7.7134068509105728e-003 1.4741817122059000e+000
      -1.2448429224637858e+000 -4.2372452519461009e-003
      7.2838950330561503e-001 2.7933735036892409e+000
      1.5272606098776098e+000 2.1527776603063820e+000
      1.2711790664293217e+000 -3.6859060049370801e-001
      1.6808596396785386e-001 1.7653437367134437e+000
      -2.0600178554261200e-001 -1.7719272394972729e+000
      2.2978715209934533e-001 2.9056987895149650e-001
      4.9454060360081611e-002 1.7283342423031260e+000
      2.6703174764926052e-001 4.6723759205573140e-001
      -3.4743181730573791e-001 7.1315484024494014e-001
      1.7293597175070381e+000 9.9154436516045136e-002
      -1.0694183488217710e+000 -1.4051749006365024e+000
      2.5722564577685336e-001 3.6719545012026267e-001
      -6.3245589890915632e-001 -3.4627791460006274e-002
      -2.9791231130082557e-001 1.5289929471784862e+000
      2.3272404834595628e-001 4.5228296028154930e-001
      1.2065517048526453e+000 9.1022754677698348e-001
      -4.9921895324449850e-001 -1.0020133946129712e+000
      9.5197210190928791e-002 -9.6792406910116491e-001
      -1.2745163148331871e+000 -1.8819494898144387e-001
      2.8661893840566979e+000 -1.2563765533414344e+000
      -9.9992121409296075e-001 -1.7579708067692865e+000
      7.3781603827748443e-001 -1.5554145797618359e+000
      1.0079523937319423e+000 -2.2093520744441384e+000
      -1.4617087789006009e+000 8.9916069059783432e-001
      6.3061591954309537e-001 -8.6350100680217645e-001
      2.8725142289250227e+000 -2.2778751929325374e+000
      4.5095218028620476e-001 1.6978222297124829e-001
      -1.8284456000157823e-001 -5.7293342266630909e-001
      1.5187544713988179e+000 5.8698253771411713e-001
      -1.0793734014352188e-001 1.6695677528919450e-001
      -5.1457207302746699e-001 -1.7059779876386729e+000
      1.6851757994238439e-001 8.2219401004414017e-001
      -2.2499074848461298e+000 -7.5714666974405154e-001
      -7.3478103769278691e-001 1.0722865455730248e+000
      2.7228538103716760e-001 2.5378406506803453e+000
      9.8498086604700963e-001 -6.6352106470832195e-001
      2.0192239761283641e+000 4.3363230221124988e-001
      -1.4462466792405126e+000 -9.2197026666324855e-001
      -1.0726431403007460e-001 1.3501281941649446e+000
      7.6192498876309855e-001 4.9299053352527059e-002
      4.6316986762891380e-002 5.6070057432034366e-002
      2.3500207766523151e+000 1.7082930327122572e-001
      -1.4940976062682703e+000 -3.3064865782250963e+000
      2.9849680272526508e-001 1.5488088051997408e+000
      3.4552352152082133e-001 7.8803133651537205e-001
      3.6428581853157123e-002 1.8619859607799683e+000
      3.4655597822717743e-001 -4.4794981686253643e-001
      -9.9283781630069645e-001 -7.6621998315285245e-001
      1.0756435791754514e-001 9.1686677422013863e-001
      1.7442931110636881e+000 -1.4044439581946011e+000
      -4.5204999370389670e-001 1.4142520824581731e-001
      -1.2016790225516716e+000 -1.1515799048153830e+000
      -1.5701221232196449e+000 1.2168075432400240e-001
      1.5219726293868929e+000 1.3546603304029676e+000
      -1.4444490013586420e+000 -1.9184102865992290e+000
      1.7472016909225876e+000 -1.3881517552023264e+000
      6.7732484047042740e-001 2.7501536543119137e-001
      1.5592353121990119e+000 -1.1396632506504056e+000
      2.3981071707011783e-001 -2.0266690216140311e-002
      8.2943949150450569e-001 -1.5112771824779154e+000
      -1.9770269021014766e-001 1.5479092168145387e+000
      -2.4405381590284439e-001 -1.7456182771576286e-002
      2.1731918037922140e-001 -3.0532663021180800e-001
      1.3276839676978538e+000 1.0839676376878464e+000
      -3.3808648663801699e-001 2.8781805498980813e+000
      1.0353580339868886e+000 -9.8455049641165152e-002
      -2.7212670782983089e-001 4.2087029228729816e-001
      -4.9410974258889628e-001 -2.0608396184036731e-001
      9.1112952497309652e-001 1.1518522705177259e+000
      -7.4498942410710112e-001 -1.0653466093255470e+000
      -1.3508725321414525e+000 -9.3453453993265034e-001
      4.0011346525556180e-001 1.1382708205883385e+000
      -2.8929170574905867e+000 -1.3465129666137186e+000
      -3.7130261464943941e+000 9.2953004897281444e-001
      -2.2498578839076838e-001 1.5833663206477024e+000
      1.1800821060066879e+000 -2.7619921401396406e+000
      1.1147907936645445e+000 -7.0462968963114159e-001
      4.5039342604043792e-001 -6.0786580426484271e-001
      2.5174791076059397e-002 -1.3813278678351470e-001
      3.9968519417703946e-001 -1.0838747302454630e+000
      5.3707328361774531e-001 1.3127051323439692e-001
      2.8355473541469123e+000 2.2954662736077927e+000
      -9.6570416764516787e-001 -1.3488904091313194e+000
      1.1212412741596167e+000 2.8294068089804159e-001
      -2.3799379286061867e-001 -1.2672355640025184e+000
      6.0858500618471822e-001 6.8971346173804937e-001
      -2.6278115204365333e+000 7.2503589343344232e-001
      5.7471113903116239e-002 3.2198308172730421e+000
      -6.0042910577728226e-001 -3.9405601171971549e-001
      1.2606524492996145e+000 3.6921071940619260e-001
      -1.4996126348539061e+000 -5.9452795466301778e-001
      -7.6763508613015763e-001 2.1917857949825859e+000
      -4.4123527988855560e-001 -6.7192089426913446e-002
      -5.9569989728837947e-001 -3.4561447443127218e-002
      -1.0381446808700325e+000 -1.0559470460158145e+000
      1.4808237324777240e+000 -1.2694553847794658e+000
      -1.6129170715066523e+000 -1.0301824843165068e+000
      -1.5382498621896363e+000 1.5220864977380069e-001
      -3.2256916331208763e-001 1.1161077626774442e-001
      2.0552660765716912e+000 -5.9472403296778076e-001
      -7.2512239849360138e-001 8.1249571360757766e-001
      -2.1109978994741478e+000 1.8202469261430159e+000
      1.0594387952940911e+000 -8.4805066100550586e-001
      1.1890743883766810e+000 6.4967422587528434e-001
      -1.2853161283565093e-001 2.7475255622543200e+000
      5.0445516159803350e-001 3.9802496549341149e-001
      -1.2376512961618984e+000 4.6676534977769346e-001
      -2.7395974319344774e-001 -4.6282426120263359e-001
      7.1637654756232994e-001 5.9100399563433248e-001
      -5.1343014135542320e-001 1.9310265417097464e-001
      6.0415487159037007e-001 -6.9125263742608589e-001
      1.0583871473369368e-001 1.3544664018676773e+000
      -6.6108499270509711e+000 5.7658449013480961e-001
      -2.1872396351208301e+000 -5.8990433976392129e-002
      9.1470284327626539e-001 -2.9617793155488997e-001
      3.4305531742500324e+000 -4.3631805785576117e-001
      2.0422238032470235e+000 9.5802677750564239e-002
      -2.2506291821165517e-001 -1.7090161390586331e+000
      -2.5325141274641556e+000 3.4718180349326910e-001
      4.7929553130354829e-001 1.0956635877986289e+000
      -2.3493445967233079e-001 1.5006910585670016e-001
      4.8478343521078526e-001 -1.3510650290620205e+000
      8.2736331452527634e-001 -4.2593779624963229e-001
      1.0791285580413386e+000 1.7358714297305722e+000
      -1.3606919528740689e+000 3.6895284788580202e-001
      -5.6428064439942471e-001 1.4917279082643180e+000
      -5.2382784187894049e-001 -1.6199667004427949e+000
      1.3343725571878148e-001 3.2619735802255563e+000
      -3.4633200728555397e-001 -5.8341817548234608e-002
      1.4675392231933471e+000 -1.1264391770722435e+000
      -2.5767723308551367e+000 -1.5338263078006265e+000
      -1.0910311531666439e+000 2.2005724034267780e+000
      9.3575419652757563e-002 -7.3654255767126930e-001
      -8.8726451932167411e-002 -6.6494158540494175e-001
      -8.0738765789051004e-001 6.0950966561444520e-001
      -4.0473696376933926e-001 5.2911756466099058e-001
      1.5109795608134196e+000 -3.9267172099889397e-001
      1.5224304471583947e-003 1.6777780003189399e-001
      4.0103434876150335e-001 -1.8603307132085605e+000
      -1.8115084929876966e+000 -3.3276163141376487e+000
      -1.5858678152718191e+000 2.2203530767376978e+000
      -1.6607185975391643e+000 1.4532723253024910e-001
      1.4481861358603427e+000 -5.6517549248698937e-002
      2.5118104239028756e+000 7.0402201242889295e-001
      2.2099108098275240e+000 1.6762663442497918e+000
      8.5621963580383598e-001 2.5319149732210540e+000
      1.3059507847607168e+000 7.8432618359664819e-001
      6.5141219221402491e-001 -2.8695294239154889e+000
      2.4406056493275458e-001 4.5984018671337709e-002
      -8.5781666293990588e-001 1.2266063915358326e-001
      -4.3853493690331383e-002 -1.7120310273736561e+000
      1.9982208975142501e-001 3.5318228243266886e-001
      -2.8823234714717105e+000 -1.5756488428491648e+000
      -5.5034565809793989e-001 9.3788296083450806e-001
      -1.3285719723181058e-001 -7.3980275975791709e-001
      1.2371445177710949e+000 -9.8675720222594476e-001
      1.2016810767378967e+000 -1.5544296700306159e-001
      -2.6657202588399822e+000 2.6110213272008376e-001
      -3.7577217214430170e+000 6.5216932957285945e-001
      1.4348144653220412e+000 -2.4815760023997749e-001
      -5.5846123259364430e-002 1.1931841138861372e+000
      3.4614019073603697e-001 -2.8157392955723290e+000
      4.1391717394593419e+000 3.2368575627424462e-001
      4.9855946775334770e-001 -1.1349099329233250e+000
      7.4279341179107972e-001 9.3934347478390146e-001
      -8.8629470212511530e-001 2.8525105953088015e+000
      -6.3904247596569297e-001 -2.7900202004913663e+000
      2.0204136663917871e-001 2.9830445081225636e+000
      7.6162907212748110e-001 3.2156383062393314e+000
      -2.3768329060140996e+000 -1.7183368419869507e+000
      -1.8729638382553870e-001 9.4015549122426667e-001
      -7.5311985857515987e-002 4.0458650685712376e+000
      -7.4072120335367253e-001 1.0760781112101876e-001
      2.1938108820461482e+000 -7.8262351245582140e-001
      -1.1809606467603013e+000 -6.6952458140760329e-001
      2.4499472150470414e+000 4.1524716920822707e-001
      8.7200126571548919e-001 9.2598027337998856e-001
      -6.1953110176396953e-001 -5.6145657499279611e-001
      -1.4537823248804218e+000 -7.9700756584397903e-001
      3.4524529753595573e-001 1.8944370020629673e+000
      -1.6902824620001908e+000 -1.6823277700343813e+000
      -2.4146123043987782e+000 4.7228319053724155e-001
      -1.4707521712286356e+000 -4.8403809165753925e-001
      1.1000036877086790e+000 9.2545668446487450e-001
      9.1427185241774922e-001 3.1408028907301069e+000
      1.6656326049584929e+000 1.8729928009583541e+000
      -1.7569020084330604e+000 3.0232133309552167e-001
      8.1428978519190232e-001 -3.4181838042320561e-001
      -1.4321093951797503e-001 3.1504219915093623e-001
      -5.9626042219636577e-001 -7.9219150855775389e-001
      1.9743062076835038e+000 -4.8707658431203804e-001
      -1.3548152884866280e-002 -4.5072704687424364e-001
      -8.1635064615423545e+000 2.5661217975464345e+000
      2.4673900537434310e-001 -1.3407587993275367e+000
      2.5393086539354703e-001 -1.9613273339935333e+000
      3.9776174582793766e-001 -3.1286091799337612e-001
      1.2113287092353895e+000 4.2361250774165876e-001
      4.6654264043734522e-001 -1.5408452894099613e+000
      -2.4441412999753687e+000 5.7359775446169614e-001
      2.2543532645146001e+000 1.0222563798282669e+000
      -1.1718646595449524e+000 1.8186334157154868e-001
      1.2256419797016689e+000 -1.5458578499654332e+000
      2.5753896582859288e+000 5.8824344008241747e-001
      8.4559222729876671e-001 5.1279582261778567e-001
      2.0520698598157656e+000 1.2229751379124925e+000
      -6.1865995916426364e-001 -8.1715156997468363e-001
      -6.7696693800307750e-001 -1.5258278367333618e+000
      -1.4165013462015676e+000 -1.3828358247640588e-001
      1.8741435473157364e+000 7.4479296239736781e-001
      4.7336942359733530e-001 -8.4280299853221818e-001
      -1.4257771472783709e-001 7.5335895067852821e-001
      1.3975352872073292e+000 1.4415045259872481e+000
      3.0541245309437720e-001 1.5202320763486112e+000
      3.0411122686336993e+000 4.8884670192391860e-001
      -3.6758959892447368e-001 -5.0839403638748126e-001
      1.0967114494572561e+000 3.9841722021672449e-001
      1.8829302686925198e+000 1.9742425177068963e+000
      1.1495834847841830e+000 -6.1576748278211212e-002
      3.7642151732351659e-001 -1.7258438494392636e+000
      -2.1606317400280224e+000 2.3065551021222972e+000
      -2.4219756658106339e+000 -1.8551596304084499e+000
      -2.8129872513366765e+000 -1.6389700754273542e+000
      1.4933202265930043e+000 -1.8181575500268529e-001
      1.7055565033793016e+000 5.8430929328990266e-001
      -8.7080381893864844e-001 -1.0787434635376562e-001
      1.6930631542581935e+000 1.6573520872906033e+000
      -2.6577263753262224e+000 4.1514420702549598e-001
      2.0265316359519754e+000 -2.1416716629504946e+000
      -1.5187963946907597e+000 -2.0237826190719008e-001
      2.1030780666950868e+000 -2.6343879475880616e-001
      -7.8952001954238904e-001 -1.9158022058177404e+000
      7.1466982061149209e-002 2.0562230714488976e+000
      -5.1011745975795639e+000 2.0192579141238043e+000
      -5.2604724699663807e-001 1.6637240336350354e+000
      1.3668862717865093e-001 -7.0457384105584409e-001
      -4.4401767747768023e-001 -3.3521584440869985e+000
      2.8825883263723764e+000 8.6559673612369392e-001
      -1.3246892702279713e+000 -1.5510135239932590e+000
      -3.8088605039368204e+000 7.6473391653579414e-001
      4.1036838137100515e+000 1.5965933905134744e+000
      -5.8968588658335808e-001 6.9348324120186755e-001
      9.8232391581326151e-001 8.1542596312586824e-001
      1.7553385788698650e+000 1.1285943625780295e+000
      1.4054321391435656e+000 2.1246946582690716e+000
      1.3361774879999917e+000 -1.3992636245600514e+000
      1.7926106427532298e-001 4.5978657307573456e-001
      -5.1635193316608041e-001 -1.7480234081449106e-001
      2.8751465463216400e-002 -9.5474939274732062e-001
      1.7990084336917329e+000 1.0812980623000472e+000
      -1.2865256006578632e-001 2.1952853542971882e+000
      -3.4011822652733109e-001 1.2667772957286244e-001
      1.2625170235539329e-001 -1.9082524888553880e+000
      -3.8381056283703979e-001 7.5921525401827117e-001
      2.0939516651443508e+000 -9.5961223453326572e-001
      6.4226658990714125e-001 -3.3285716822772465e-001
      4.5306885334248745e+000 -1.7783735239209815e+000
      -1.1871268661471219e+000 1.1781799755925835e+000
      -3.2412272180784074e-001 -1.2926071226333533e+000
      -4.0652778709635901e-001 3.2091955343959638e-001
      -4.0611478730892285e+000 -4.4359932158154855e-002
      -4.0898895523251255e-001 -8.8364971757329980e-001
      3.0930962891866387e+000 -1.2459918437429238e+000
      -2.8890339017213207e-001 1.5132835856814990e+000
      -5.6642424170555405e-001 -1.9268087770972606e-001
      -8.2682797676311348e-001 5.7868776235589026e-001
      7.5066206005490166e-001 7.2681085187956262e-001
      -2.7930862480178409e-001 -4.2949927795482579e-001
      -9.0151282394934673e-001 -2.0999124624064027e+000
      -2.1864197219114354e+000 -1.0573807173668339e+000
      3.0466832016226402e+000 -4.0945809857756110e-001
      -2.5908169075219023e+000 -3.5709118740209069e+000
      6.3885866311095621e-002 1.6984202776972268e+000
      -1.8460227541525267e+000 1.8469088165666940e-002
      -1.2706175627452013e-001 2.8906093476314365e+000
      2.5645083602147634e-001 1.0787215345448311e+000
      5.6136967873306776e-001 1.0242455022534480e-001
      1.7220871195122942e-001 -1.8854611164273993e+000
      -3.4561898131836027e-001 -1.3497577009248372e+000
      -5.5667498822965011e-002 4.0300379163031680e-001
      -1.0765031863716910e+000 -9.5653206928850409e-001
      -1.3252904758261619e+000 -4.0094690915148518e-001
      -6.7785788701948058e-001 -2.3384033208406096e+000
      1.2368443284007511e+000 2.0694616780538437e+000
      3.0022839048846850e-001 -1.1328705091839566e+000
      -1.0404920435422162e+000 -2.3493862097839910e+000
      -3.5900938576268182e-001 3.9150934033108720e-001
      5.7544509179133574e-001 -2.1680793616397900e-001
      -3.3734583981222688e-001 -2.6749358103568786e+000
      1.8379582434889077e+000 2.8571592878183094e-001
      3.6730127194111821e+000 -3.0840616378715524e-001
      -8.5505353262915551e-001 1.8488047703076353e+000
      -2.2462283284016982e-001 -9.9320694005352561e-001
      -1.8727548855467127e+000 2.7355641608176148e-002
      6.9075067999492712e-001 -9.5851082395323151e-001
      4.2562875821325424e-001 -8.1671953799321217e-001
      3.5368783687761725e+000 -2.3121406067625183e+000
      -2.7078272165631225e+000 5.9266390383675593e-001
      1.0613050637881547e+000 -7.9866288499158500e-001
      -1.6301662427467891e+000 3.2845318053372186e-001
      6.6520890796540633e-001 -2.9782086283113123e+000
      1.3281910123911833e+000 -8.3949395145254113e-001
      -1.2912800815314756e+000 -1.4792812491710214e+000
      -1.1689829816643249e+000 -1.4601134385440622e+000
      8.9754525067803292e-002 -1.3750472876957265e+000
      -2.0837080407930929e-002 1.1297994747723432e+000
      2.2414714669301583e+000 2.1506991777952461e-001
      -4.4927601385759453e-001 3.8204607188258050e-001
      -3.4653225533253242e+000 1.5955693021991399e+000
      -2.9358251789680867e-001 1.1074286295913605e+000
      1.4575392421487446e-001 -7.9652385481325283e-001
      2.4443048532971772e+000 -8.2862251239698120e-002
      -7.2559063906586924e-002 8.6642262942656112e-001
      -1.3518389606199408e+000 -6.7177498603724295e-002
      -1.3269094129170544e+000 2.4782322483946531e+000
      -4.1852930590931747e-001 3.0448563937489324e+000
      7.3497881925442921e-001 -7.1473774487555986e-002
      2.5055636670600698e+000 1.0856396556912720e+000
      -1.0942696324122170e+000 1.4098086898753706e+000
      2.3307500491882793e-001 1.1792278280026731e+000
      -6.9973513750000838e-001 -7.8942110366630491e-001
      1.5890345839932668e-001 4.9455601907420554e-001
      1.2661315756089153e+000 -2.1950429552448090e+000
      -1.5779685396851842e-001 -1.5575103238941473e-001
      -1.5971259471354311e+000 -1.0025872256643360e-001
      -4.0149467369012459e-001 -2.3783649699793670e+000
      7.2923309293779605e-003 5.9711661616849021e-001
      -2.7029225949350671e-001 -1.1633504217841291e+000
      -2.3994089186202832e+000 -8.4450224676863317e-001
      1.4148750418192153e+000 1.7058453890485279e+000
      2.6370517143727672e+000 -1.5803869413860876e+000
      -5.2742839012057341e-001 7.8728206719978169e-002
      1.6241661835739418e+000 -2.2019278432266818e+000
      -4.4748140192810015e-001 2.0101905748032395e-001
      -4.2153496262265561e-001 3.6310726232691598e-001
      1.1052140825828209e+000 7.4242275039576222e-001
      4.0015222051551422e+000 -2.2995295163346872e+000
      -1.9828924929082781e+000 -6.2196007307022594e-001
      1.1657978718154975e+000 -6.3245585365294554e-001
      7.7130954074805946e-001 -1.1140915597012138e+000
      1.8552629825093585e+000 -4.0465435382779606e+000
      -6.3371000837871361e-001 2.1245064166841085e-001
      -8.4874565479397590e-001 8.2211987512874274e-001
      1.0514313546335279e-001 -6.7513236626859752e-001
      6.0298477799330452e-001 7.3901283604341483e-001
      -1.4383942700556775e+000 2.1426771064672954e+000
      -3.0552865541969493e-001 8.7763422670834723e-001
      1.7381278610883213e+000 -4.5325136366789398e-001
      7.4272348336509075e-001 1.8138175392670595e+000
      8.2187034308644979e-001 -4.9014999488646467e-002
      -1.3499980806118363e+000 -8.5087593811390305e-001
      -5.5991297883866786e-001 -1.6433530441382789e+000
      -4.9354532742901180e-001 -1.3930323514670471e+000
      -3.4587551244643522e+000 1.9416332530709717e+000
      4.0444250753824313e+000 -1.7806093786555111e+000
      1.6312608643502646e+000 5.3371451468665143e-001
      1.5969812592892776e+000 -7.4266830136901962e-001
      3.1588212193122898e+000 1.7096395676213787e-002
      -3.2343564286903890e+000 -8.2864305612609412e-001
      -4.1802595114048080e-001 1.7083809161497039e+000
      -1.1479526281129075e+000 -1.8944172574481399e-002
      5.7826111438346539e-001 -8.1963152193845634e-001
      5.2760134240658152e+000 9.2629948282208974e-001
      2.2573196961315065e+000 -1.7589465487981162e+000
      3.8152258687198182e-001 1.0934992687486873e+000
      9.1708990833262172e-001 -3.0156368433309875e+000
      7.7156845847539202e-001 -1.4207243403571130e+000
      -8.0180715530447277e-001 -1.8014235103813663e+000
      -1.8002750973652397e+000 5.6265053254190289e-001
      4.6155790893386650e-001 4.1299428590447185e-001
      1.9283148608780500e+000 8.5001299062822921e-001
      9.6783103124457970e-001 -1.3701163437305430e+000
      3.3993479326988346e-001 -6.2384691161907058e-001
      3.2231292828357561e-001 2.5969969143119170e-001
      -5.0268041716541101e-001 1.3538805506764143e-001
      -3.8762752089920754e-001 -2.2437521500071012e-001
      9.8951128370864239e-001 -1.5706803017010353e+000
      -3.5489264370463058e-001 6.9876240118006427e-001
      2.6861635182977972e+000 3.5705347893729655e-001
      1.3695859431959594e+000 -2.4251815475608671e-001
      1.0915296846072818e-001 -1.1113597363870584e+000
      8.6702309950187129e-002 -1.9845401660477902e+000
      8.2882289886454097e-001 1.0958801609550173e+000
      -1.1603358635510319e+000 -5.5033495495352014e-001
      2.3799319967263483e-001 -1.6044484778449847e-001
      4.8549183291009973e-001 1.8097197834956882e+000
      -1.3107694101863283e+000 -1.2903415788067147e+000
      9.7537601782769745e-001 4.5661231612310127e-001
      6.5862536934718352e-001 -5.6225963202825624e-001
      1.0239637353627149e+000 9.0756908160969862e-001
      -4.6092409750252201e-002 -1.1416080827867234e+000
      -1.0998500764589094e+000 -1.7507500636840848e-001
      4.6588785409352670e-002 -4.8954845575124778e-001
      -3.2678906989704064e+000 1.8083601145657420e+000
      -2.4232716600511323e-002 -8.4551581243330998e-001
      4.4474566908366764e-001 1.8089009479444089e+000
      1.9893466544430332e+000 -1.3238011129632279e+000
      3.7434266660013598e+000 1.2863271780421368e+000
      -1.1610506488845662e+000 -5.9054798903229411e-001
      -4.7707475047030240e-002 1.9191747841527813e+000
      -2.2389780485305200e+000 -2.1903541512876763e+000
      2.7429160332210589e-001 1.6454773434452323e+000
      2.6319199308804127e+000 9.9993479327873735e-001
      -3.2415964319625201e-001 5.1627320815749800e-001
      4.8470094263485952e-001 2.3292065511870350e-001
      3.9468634117320162e-001 -1.1871870121186652e+000
      1.1386866693607296e+000 3.3130922490419739e+000
      -4.2599473609760991e-001 2.7606178601339115e+000
      -1.2402887686738515e-001 2.3481395959247866e+000
      4.7989893851904865e-002 2.2587104233412099e+000
      4.3931742424225401e-001 -9.5565123135071511e-002
      4.6600426291805962e-002 3.3892314380654459e-001
      -5.4979950902692920e-001 -4.8280140817760259e-001
      -1.1069115572556416e+000 -7.5323978787319140e-002
      -6.6407593386064467e-001 -4.6639119819563674e-001
      5.9621994983823801e-001 2.7530404291196398e-001
      8.6116315652026842e-001 7.3012261497849296e-001
      -8.5830226891798389e-001 -1.4876126530261065e+000
      -4.4010213658072034e-001 2.4562447618355722e-002
      -4.9057391623550062e-001 -2.3697764943329398e+000
      3.0140041145274612e+000 1.7147897002310883e+000
      -5.3881574967964407e-001 -3.6944103591288457e+000
      -8.6223648379810480e-001 -1.4789956503035091e+000
      -5.0265248512988414e-001 -1.9400890522409471e+000
      -4.3404994199985825e-001 -5.0211107872725438e-002
      -1.5553448905137018e-001 -2.0585130989861362e+000
      2.3648421966472705e-001 -1.1630588012389209e-001
      -1.3188748310501832e+000 9.4994290444310528e-002
      4.6079544724231886e-001 7.1839381153865800e-001
      6.0908144752568705e-001 -2.0650443475054122e-002
      -9.1449345013095804e-002 6.8984157629923393e-001
      1.4485094027566139e-001 -9.9035190080103341e-001
      9.0160952736994107e-002 -1.4032744735680067e+000
      -4.6585722123045183e+000 1.3183421623275753e+000
      -5.4487271863408970e-001 1.8750832617349997e+000
      8.4634949195024389e-001 3.9014774956989684e+000
      1.4969353074703502e+000 3.5340930201026111e-001
      1.3220538491195124e+000 -1.3616670526152084e+000
      -2.2161035886514102e+000 -2.3755991129252814e+000
      -1.0035887077418307e-001 3.5424728349184629e+000
      -7.2125136800546841e-001 4.0086576181046335e-001
      5.2196740478930470e-001 1.0825866344371669e+000
      8.5917259067998397e-001 -1.2481654815745495e+000
      -2.7138277682959511e+000 -1.5592477453781026e+000
      -4.1454965764279234e-001 -9.8918078316131489e-002
      -1.0083948516782038e+000 1.1331781188108752e+000
      1.1174070065428616e+000 2.0524672117030778e+000
      -8.9668308505370020e-001 5.9443830890876859e-001
      -5.8147985895963727e-001 2.1745900585902986e+000
      -8.1731405615103392e-001 2.5320815477808849e+000
      1.8988898178332956e+000 -2.5025315251926874e+000
      1.1032592630580752e-001 2.6788316069343832e-001
      -1.9499655554442679e+000 3.9516876228309916e-001
      -1.4669009247856923e+000 6.2575139447258477e-001
      1.4710391295862156e-002 2.0794268537018348e-002
      -2.2107573261312141e-001 8.0354893763570390e-001
      -8.2963756150705559e-001 6.8542658171525850e-001
      -8.9235650412738909e-001 -4.8720472119512992e-001
      2.1330619361610399e+000 -1.1469436070051677e+000
      -1.5185620144510614e+000 -2.6758363081052225e+000
      1.3458492931590034e+000 2.7773152815665285e+000
      2.2619536769101958e-001 -1.7765079784880602e+000
      -2.1622961569471206e+000 -7.7088171311703113e-001
      -9.0835346200606049e-001 -1.0284776085390517e+000
      6.4539706602170155e-001 1.4731217124765144e+000
      1.9941351326705489e-002 1.5836979120147925e+000
      -9.5179870595143778e-001 2.1241344846410630e+000
      -2.0779265402611586e+000 2.0533258166051854e-001
      1.1191444913553352e+000 -1.7440371488209516e-001
      2.2109647695191198e-001 1.0515229366097557e-001
      -5.1352001327143271e-001 -5.3052616356505866e-001
      -1.5221784576761341e+000 -1.5225547655984273e+000
      2.5498958937773286e-001 -6.1411107930122011e-001
      -6.5912343585973598e+000 -2.3900613083291842e+000
      -1.5955106379899222e+000 1.5998640554600010e-001
      -2.7632730687658447e-001 3.0333193859559868e+000
      1.3634239130695827e-001 -3.0006685150481998e+000
      1.0843418160140148e+000 -8.4054143112110846e-001
      8.7720953935001478e-001 -1.9133177220428692e+000
      -6.3699004587155528e-001 1.7717747465402667e+000
      6.0439685096460083e-001 -8.4468076667556491e-001
      2.5178443916876497e-001 2.7681400428299652e-001
      4.9552618126847170e-001 -4.0346397639554404e-001
      -1.6055738714721461e+000 -1.6618134005650514e-001
      6.7293966842188979e-001 -4.1127577946407334e-001
      -1.5007844226132858e+000 -1.7294305128828300e+000
      2.1067684499103315e-001 4.2883675561203977e-001
      -3.2011843483593685e+000 -6.7610696658013647e-001
      3.5148972060687500e-001 6.6797747657099882e-001
      -1.4367975443119998e+000 -4.3437732601369544e-001
      -1.7917877591389303e-001 -6.0395642848395015e-001
      -2.3251790863890478e+000 -1.2611061115903557e+000
      -2.1943959070067240e+000 2.0157202280270319e+000
      -3.3435588444780001e-001 4.8716032473959342e-001
      3.1848406494752773e-001 2.2864181051008631e-001
      -1.1845745382118450e-001 7.6521611160117953e-001
      8.9285507228340466e-001 1.3512537514718248e-001
      -1.3626699216085081e+000 -7.5250818818773257e-001
      -1.8814178316922453e-001 -5.9564504058492784e-001
      -8.0515215689705932e-002 -1.3836888310611557e+000
      1.3153272084701930e+000 -1.4490221270503907e+000
      9.5010987996871993e-002 -2.3793661085043682e+000
      -9.1054204426354668e-001 1.8806860672067662e+000
      -2.9595456471504111e-001 -3.0901161837498253e-001
      -1.1292280245823567e+000 8.6650335477313856e-001
      -1.1469836421338717e+000 1.9119806809146447e+000
      -9.3380960886600106e-001 1.4629676190678262e+000
      -2.3873029605540768e+000 2.8801020823062073e-001
      1.6511911192121722e+000 -7.8055258830272900e-001
      2.6764331901247379e-001 9.4494353157331412e-001
      -3.2250598124424634e-001 -5.5440800867417894e-001
      -1.6261553576060896e+000 -2.4435760196911718e-001
      3.4300692762291801e-001 -6.7801417519656515e-001
      -6.7236732092972247e+000 -9.2813838277103444e-001
      4.3132231797622811e-001 1.8916527379804290e-001
      5.2780209751526264e-001 1.2419712580306437e+000
      -7.1633314995703412e-001 -1.4179443273879138e+000
      4.2840065038228179e+000 -2.4128864543541809e-001
      -1.5207035881919289e+000 -1.7302013091493201e-001
      -2.2237247330053562e+000 3.2098958581213138e-001
      9.7654865584672335e-001 1.2594147445344468e+000
      6.2025994119246464e-001 4.1378627841240118e-001
      3.1123497172601229e+000 7.9764463515765083e-001
      2.9015155183658865e+000 -6.5224435794515445e-001
      -4.9607179653671207e-001 6.5725829210055331e-001
      6.3237071461181438e-001 7.4806517699362612e-002
      4.1123740327471868e-002 -2.6972874846277184e-001
      -1.3750025544240243e+000 3.6603222364167656e-003
      7.6866174448733682e-001 2.9341060628253377e+000
      -1.1227805900456223e+000 -1.3159136302993904e-001
      3.1692149200594537e+000 1.3414295938143703e+000
      -2.0449002777730643e+000 -1.6018441173443452e+000
      -1.1411451606708429e+000 2.3648372450539106e+000
      -1.1417050089692917e+000 -1.2689057521215114e-001
      -2.2262610550299593e+000 -1.1227242896413290e+000
      -3.9300655685763602e-001 3.5722019143671302e-001
      -3.9359218981147281e-001 1.3821058954206749e+000
      -1.6652990984050209e-001 -1.2593650476851526e-001
      -6.7874852447063772e-001 8.2835819468782598e-003
      -2.7690276146393178e-001 -2.5240362409331935e-001
      -7.6591151503726007e-001 -1.5772137057824103e+000
      7.3477513354205437e-001 1.5434922286078554e+000
      1.3132631619105766e+000 1.2932447323103555e+000
      -1.3981834998567246e+000 1.8646254757838707e+000
      1.2800476787198773e+000 -4.7652762379374841e-001
      5.3855430882615907e-001 9.8609608168837559e-001
      -1.7271853355718445e+000 -1.9002252578750287e+000
      -1.6337781623445600e+000 7.4991533313645764e-001
      1.7609953728304835e+000 -2.0606445691637201e+000
      -1.8154601208922778e+000 1.8591443621652102e+000
      5.2869808728211461e-002 3.6775888004640850e-001
      -5.7888882109045847e-001 -2.1600631330879692e+000
      2.2654215781799275e-001 1.0589019926785381e+000
      -7.8300551825111668e+000 -3.0469980071762208e+000
      4.5458527796502540e-001 -4.7331158360060063e-002
      -2.5589502756136229e-001 7.2693956653323855e-001
      1.4642478737029678e+000 -4.1602940161717639e-001
      1.2488958341247445e+000 -2.0574468360040150e+000
      -3.6943296548545592e+000 8.7758086294609705e-001
      -8.9031373568482064e-001 7.7634478910182492e-001
      2.7793796588160946e-001 3.0665669229048759e-001
      1.4873308415448654e+000 2.7084124712461738e-001
      2.2794471975163018e+000 -1.4128380608194846e-001
      1.0182848865437042e+000 1.0033545046082386e+000
      -1.1259820870978048e+000 -1.0114876436764753e-001
      1.7610100369643653e+000 1.2366900430603858e+000
      1.4917568064670375e-001 3.2775921063858617e+000
      -5.0944421057269851e-001 -2.7897856444597915e+000
      9.6888687131518758e-001 8.0563028563898553e-001
      -5.1846952422488879e-001 1.0680878735699564e+000
      1.0696206640178640e+000 -2.8330896572536118e-001
      2.7345978236781719e-002 -1.0283122787654972e+000
      -6.6824952129548287e-001 2.2362617898953512e+000
      6.9083732514981189e-001 -4.6655198710854523e-001
      -5.9966549362569499e-001 6.5671833041743755e-001
      -8.7014638505557151e-001 -1.8815190455320213e-001
      2.9208822255948714e+000 7.1843347830876081e-001
      1.5052477727714961e+000 -5.6746737649068124e-001
      -9.8336731230912056e-001 -1.0252418371508550e-001
      -1.3771871120528905e+000 -8.8346839120036558e-001
      -5.6548455502332576e-002 1.9318613879437423e+000
      6.7135234300318114e-001 -1.4364860163766475e+000
      -1.8564706035201333e+000 -4.4769225464770929e-001
      -1.9525543615729468e+000 5.9103117180378040e-001
      1.0232334836145367e+000 -1.4619557895278581e+000
      -6.3477658378504365e-001 1.3512205488684279e+000
      2.1271566737403100e+000 6.9285849271046751e-001
      -1.5768448566791258e+000 1.1046406970511653e-001
      6.5824028052857875e-001 -7.2979311421735971e-001
      -3.9027721508487359e+000 -7.3508670489520356e-001
      1.2012229569850952e+000 -2.8279590675318245e-001
      2.1893584575472103e+000 -1.4783551397404378e+000
      -1.8619492423621951e-002 9.6835775783843425e-001
      -8.8053268769758439e+000 2.6599575688583501e+000
      1.0423727761351888e-001 -5.0727055571797808e-001
      -2.4984706174047591e-001 -4.6491600076298584e-001
      -1.5617163749816916e+000 -9.8245048760195708e-001
      1.1383454538779465e+000 4.8550661947144663e-001
      5.8990575934193157e-001 -2.2266657069870863e+000
      -1.7316874104440612e+000 2.0617921959274194e-001
      8.3754085009622559e-001 -8.9292695623577972e-002
      3.1247606179155446e-001 -4.6806530455244538e-001
      2.5874478891568025e+000 -4.2482498626746540e-001
      9.2448591844682870e-001 6.9086357099573514e-001
      9.7136823021518381e-001 1.1456223460513606e+000
      3.1294921073927551e-001 -1.0416532122164228e+000
      1.1641203453204192e+000 -3.1030936275724588e+000
      1.8953717206642773e+000 -1.4412628365915030e+000
      -9.2287215181070859e-001 1.0389958530793755e+000
      -3.6829170844527204e-001 1.2165189639650795e+000
      9.0486719968546203e-001 2.1601590641474089e+000
      -5.3981227751634087e-001 8.0581439731437043e-001
      8.6234836831671802e-001 2.1290525003719769e+000
      -8.3556331921515015e-001 3.8146812406336703e-002
      -1.1514240822931347e-001 -3.1466381986788722e-001
      -8.6588340677018083e-001 1.3321332345525636e+000
      1.8751320384088044e+000 -1.1245608034656880e+000
      1.6643847146502404e+000 -2.1075642002205769e-001
      -1.8383581351804397e+000 2.0396448492845926e-001
      -3.2698809921262934e-001 -8.1609563266905416e-001
      -2.3989396271592396e+000 -1.2127430385059372e+000
      1.0358498455656796e-001 -1.8393947828231876e+000
      8.9785493857841503e-001 -7.2221673924331042e-001
      -1.3842091773107030e+000 3.5915786580236925e-001
      1.8708634327938614e+000 -2.4219193103894674e+000
      1.1750304002729677e+000 -1.9308229326720798e+000
      1.3385749411656163e+000 -5.9752322207349984e-001
      -5.6247604991688105e-001 3.7362860755169196e-002
      -4.0828045208143665e-001 -1.4079461493605396e+000
      -1.5186478105610226e+000 -1.1770575564674433e+000
      3.2635008855521206e+000 8.0629652054205425e-001
      2.4147373066127291e+000 -4.8923240889924541e-001
      5.4126909939116001e-002 2.6521058893060774e+000
      -7.4087562986064484e+000 7.8378741456856305e-001
      -8.7904688900232753e-001 -5.7705566150482102e-001
      6.4824203856777474e-001 -3.8852240982381436e-001
      -2.8396594515606752e+000 -3.4232815241776944e+000
      2.4214876217934251e+000 -1.6621470867986838e+000
      -2.4138682980292776e+000 -2.7545964867292310e+000
      -1.8604206726203212e+000 4.5753959400483590e-001
      2.8173300772263037e+000 1.6814599936282861e+000
      -2.5717843161617832e-001 1.0189735579316180e-001
      3.8049905263403745e+000 1.1704992929449225e+000
      1.4298340932946376e+000 -4.6742806068841442e-001
      1.6280388437945033e+000 3.0378250043242350e+000
      5.9830252230631364e-001 -3.0162981388496042e+000
      -9.8135831265422704e-002 1.5326971353268777e+000
      -1.3002717027989859e+000 -6.5531018222669013e-001
      3.4523562480105761e-002 9.6354069469539072e-001
      1.8988238870060770e+000 -5.3515994797591927e-002
      1.4485697324574982e+000 3.2691551236815699e+000
      -7.1422656743528035e-001 -1.4357646572527809e+000
      1.0709836523524103e+000 1.0287981292363841e+000
      6.9674324716924596e-001 -3.6354547651739622e-001
      1.1893018175495558e+000 -9.6519987407136765e-001
      -7.3197324590993118e-001 -3.3932430605740749e-001
      2.8654935695468629e+000 -6.2859871718084492e-001
      -3.9633767546159471e-001 -1.2281492011979398e+000
      -1.6475000702399814e-001 -1.7377148750739855e+000
      -6.1194991060430437e-001 3.0314371369435733e-001
      -3.0623064318982018e-001 1.9048794137278686e+000
      7.0217464006791774e-001 -3.3934960175456061e+000
      1.3652775414491791e-001 -1.0774166371077130e+000
      1.0259496037695946e-001 1.7656046521972264e+000
      8.7262742830456164e-001 -2.1430856694014864e+000
      8.4903370558268643e-001 -1.5708753030376235e+000
      -2.6331038975114600e+000 -4.5839574826994058e-002
      3.7532351989208151e-001 2.1437485827881349e-002
      -5.4191250785075051e-001 -2.2505433879924897e+000
      -2.6709226798157277e+000 1.9987271483328699e+000
      7.2876024883170099e-001 -5.3041205770644895e-001
      -6.0699753406470180e-001 4.8932958620129019e-001
      5.2619183167197672e-002 2.7810037047930534e+000
      -6.0410875711487897e+000 1.6481112778321070e+000
      1.8881611350348733e+000 1.7207540866418223e+000
      1.7078350574489298e-001 1.2298310841397708e+000
      -3.6241394181075715e-001 -6.6345646613495546e-001
      -5.5299248612989982e-001 -1.6864949878790421e+000
      -2.0337372960655323e-001 -2.0504199160377086e+000
      4.7804535324116476e-001 4.0108752195171504e-001
      -4.6142711848747869e-001 -5.9002156398814432e-001
      -5.9057852711741021e-001 5.4439688129128050e-001
      3.5359045056352656e-001 -1.3492467859716566e+000
      -6.5649201187397455e-001 -4.4441762490103404e-001
      9.0719400154657803e-001 1.0080531247057460e+000
      -6.2113421729306273e-001 -2.6345349523388126e+000
      -4.3686997014201800e-001 3.2933466226562380e-001
      1.8848891062941155e+000 2.1609357340289359e-001
      -4.7832570082288872e-001 1.3323109454418708e-001
      4.8217258683432213e-001 -9.0533826370179860e-001
      4.1602248721610922e+000 1.2677351175045510e+000
      -6.3278837453069392e-001 4.7120773446411440e-001
      -1.3689958292665252e+000 -1.0313524631100617e-001
      -1.0795887385480127e+000 9.8450280169807913e-001
      7.0875985013700249e-001 3.3668864207775062e-001
      -4.0251780178824503e-001 -5.7409042243090913e-001
      -4.0876168152600020e-002 -1.4334998147710052e+000
      -2.8900948370484336e+000 -2.8577756167360663e-001
      7.9151908965696383e-001 -1.3043382683258671e+000
      -1.4921436244678263e+000 -2.8778758625933687e-001
      7.7352079217065983e-001 -9.1030473552076852e-001
      3.3132588405148683e-001 -3.3778456394373380e+000
      -1.4341993018037655e+000 2.3636830444676868e-001
      -1.4038326069018134e+000 -1.0198792828308221e+000
      1.1990754470440006e+000 -9.4750575311457041e-001
      2.1037221009491582e+000 -1.8953315847373026e-001
      1.4091535863904794e+000 2.2726580535253680e+000
      -6.7429799038133731e-001 5.8709521004034981e-001
      -1.6924187511546860e+000 1.2255516630359733e+000
      -2.3565670174236013e+000 2.5498603777125126e+000
      -1.2861861864406743e+000 2.3688772827345070e-001
      1.5098916806830414e+000 2.3125326491895422e+000
      -4.5207732328740191e-001 1.0569191600792649e+000
      -7.5081807433623142e+000 -1.1465388303390140e+000
      -1.4036547328790332e+000 1.9334676223348743e+000
      -1.0916606478354334e+000 3.2772722981754456e+000
      1.7861751919064686e+000 7.6998804430308043e-001
      2.7301346183235222e+000 1.4270215738969845e+000
      1.2757536837604748e+000 2.7558557798691847e+000
      2.3970632136237815e+000 -7.8863496783492526e-001
      -1.5399830939843480e+000 -2.6845023550981473e-001
      -2.1233925193387412e-001 9.3986667721331985e-001
      -7.5760300581326045e-001 -1.1863171735416351e+000
      -1.4371288358142298e+000 -1.6332481379844852e+000
      -3.4507962272089514e-002 3.5404963229911141e-001
      -5.6623931009199779e-001 -2.7617856771602383e+000
      2.7265082822939496e-001 -1.5414159835817969e+000
      7.2330773660455072e-001 4.6296709977816108e-001
      4.0573246335436003e-001 -4.7034912056080025e-001
      -1.3419976125137509e-001 6.5365256270014438e-001
      1.0416819777813062e+000 -1.7917729078450806e+000
      -7.6142012230664868e-001 -7.7485280711242466e-001
      -4.4034122025571526e-001 -1.1749610070957823e+000
      -7.4496577543001419e-001 2.6401896965192911e-001
      -2.4911032489809190e-001 -6.0966985889452385e-001
      -7.3050449133026740e-001 5.5465959107557028e-001
      1.9473161781370663e+000 -1.3543710749954834e+000
      -2.2020287131481338e+000 -5.7529767546059141e-001
      1.2752722336294249e-002 -5.2351713124476384e-001
      3.6314039281304594e-001 8.2935819511998854e-002
      1.7427299046344964e+000 -2.9895349368798780e+000
      -1.6676183647023737e+000 -1.6926941080220910e+000
      1.2059524813369664e+000 1.6173359888126482e+000
      -5.0327855363364871e-001 -7.4237483998044906e-001
      -3.7458405540456061e+000 3.0109770538774078e-001
      -5.1019527895262506e-001 6.2924573891744284e-001
      2.6348348591209453e-001 1.4498910200706987e+000
      7.2288288433554493e-001 2.7302787248086319e-001
      1.0933490093176963e+000 1.5063398444007312e+000
      -6.6143498339967310e-001 5.7873883221630384e-001
      -8.7112257306317009e-001 -4.4824882617576939e-001
      -4.7947459760851108e-001 7.1920220928639061e-002
      -6.4001448624789103e-001 -3.2180801296360861e-003
      -5.0314575023286938e+000 -7.7425960625358337e-001
      3.7200651302635421e+000 -9.1045969291623818e-001
      1.3274091073438055e+000 5.7832818205555347e-001
      -1.0402854338805341e+000 -4.7643072588623631e-002
      2.2849533435428202e+000 1.1091960926001510e+000
      -7.1225831856449207e-001 -1.7480326599709926e+000
      1.1186890622083470e+000 1.7187620364492191e+000
      -2.7327091478530017e+000 7.8330397730299295e-001
      1.4125440414547968e-001 -9.9153678471463147e-001
      2.0947765573244124e+000 9.4128150175701908e-001
      -5.6200415317930623e-002 -1.6597448765798881e+000
      2.7958644239147684e-001 3.7394370546615902e-001
      4.7367831856105563e-001 -2.0764155338127570e+000
      1.4766373832108404e+000 -1.2287380141085587e+000
      1.8453043629445069e+000 -1.9360117584709575e+000
      -4.5968977730836552e-001 -7.9298682166122780e-001
      -3.4321804512282517e-001 -1.0958585430625899e-001
      -6.4170026762241355e-003 7.4246778906554034e-001
      -3.5454226487736518e-001 -1.4033460531705479e+000
      -7.1035682230542629e-001 -3.3507375814638202e-001
      1.0571566587497037e-001 8.2058396058536009e-001
      -1.2004852778802666e+000 -1.0933178586367924e+000
      -6.4243140365130091e-001 -1.2742801402103188e+000
      3.1173376843784117e+000 -2.5237277581816739e+000
      1.3925283249578544e+000 1.6606495209843843e+000
      9.3776357061689419e-001 -6.2628236989427399e-001
      -4.3614088231084724e-001 1.5400631782287904e+000
      8.0382098713028016e-001 2.8758243789576015e+000
      -5.1801477790504491e-001 -3.5014116269839008e+000
      2.1181953996657010e+000 4.2028176379522281e-001
      -5.3942445941374839e-001 1.2928081929584303e+000
      -3.2195685791367352e+000 -2.6012459382197215e+000
      -3.4435301334176061e-001 2.0781938525793650e-001
      7.7770389054559158e-002 8.2973833907750461e-001
      1.3289198112561846e+000 3.3823815688601622e-001
      -1.3071205073909196e+000 -2.4041003131623024e+000
      1.6305103683069877e+000 1.6340718903688238e+000
      2.9909831294381040e-001 -5.4202299588798530e-001
      -5.6499452074494028e-001 -1.3875416559348480e-001
      -1.7806127980088526e-001 -4.7825164363253814e-001
      -5.4736921445787674e+000 1.4058085325630563e+000
      -3.4757375901984591e+000 -8.3841133448422422e-001
      -6.3228084680061125e-001 -8.5496901035912620e-001
      1.1630984489107536e+000 -1.3079810951412738e+000
      3.8494027578559864e+000 -1.0476175828836429e+000
      -1.3289072097711645e+000 5.7606207626631933e-002
      -3.6310334857407045e-001 1.8587473044864935e+000
      -4.0283171837217308e-001 8.9773456025710574e-002
      3.9803262470863587e-001 -1.2920754472613665e+000
      1.5197208393483885e+000 2.8366515089186675e+000
      -9.5134950215843461e-001 -1.4622159006202564e+000
      6.2433594881448529e-001 -2.5587656618918164e-001
      8.7750330873796778e-001 -4.6383142597835508e-001
      3.4113077258444791e-001 2.3311442654769725e+000
      5.6184816684822914e-001 1.7517423053215253e+000
      -6.1888390759802003e-001 1.5585193942842634e+000
      7.8677091883544059e-001 -3.2642596218238146e-001
      3.9588965981249631e+000 -7.1130427326829959e-001
      -1.6904518922295048e-001 -2.0519456474949843e-001
      5.9479248605707302e-001 1.1647503413667486e+000
      -7.4198567280302885e-001 1.7293405742311370e+000
      5.6916390642034664e-001 -7.0439276589697897e-001
      8.7404752291164878e-001 2.2199135993643260e-001
      1.1938335181722196e-001 -1.7033547981275696e-001
      9.0894053057296653e-001 -1.5193805189423253e+000
      1.1643650058107811e+000 -1.0798502632343463e+000
      -2.6773016768784639e+000 -1.3312065758534619e+000
      1.1577699444651637e+000 3.2494267242299131e+000
      -2.4554515100479981e+000 -2.0236000020804790e+000
      -1.0875259005484141e+000 -8.8557236595264421e-001
      5.0116310565389732e-001 -2.7836159078825230e-002
      -6.1542131325182381e-001 -8.6534331093692185e-001
      -1.3241852549121977e+000 -3.5943433752629850e+000
      1.1699736259985551e+000 1.0027362252889684e+000
      -1.4215946581737575e+000 6.7658010773998301e-001
      2.0952064293196755e+000 1.4462500827946068e+000
      -1.2145199478768185e+000 3.2569158242389352e-002
      2.0328153140869922e+000 -1.0777493520721963e-001
      9.6816168956949367e-001 -5.4358175627429761e-001
      -5.2293523104793953e-002 -2.2342587870628203e+000
      -5.5200421165433653e+000 5.9651106116972974e-001
      -1.1235897832697801e+000 1.9012204736779841e+000
      2.4335883340934764e-001 2.1336558448178082e+000
      1.2769348718104783e+000 -2.8608995111534443e+000
      2.7188665411623107e+000 -9.3853571713570372e-001
      -1.5369543522862039e+000 -2.8982511978294214e+000
      6.2517750758866009e-001 1.6066678537448520e+000
      1.3182422511373876e-001 -1.1942342112614470e+000
      7.1372389577832418e-001 4.1328805341647945e-001
      -3.4210857633731778e-001 1.0253084893386892e+000
      -1.6408148812512104e+000 1.2336941956549006e+000
      -5.1162621941482223e-001 -9.5745466768623944e-001
      9.7408914991714460e-002 1.4331371187562727e+000
      1.7058106546182905e-001 2.8326341384353781e-001
      -9.2663367749213099e-001 1.4637459037807434e+000
      -9.9803982588451601e-001 1.2450946890927552e+000
      4.0476391557291763e-001 -1.2741189820701571e-001
      4.0111722132805800e+000 -2.2250896590529337e+000
      1.4956790138168790e+000 -3.4037595895555273e-001
      -2.4314391461313165e-001 5.1271291619144033e-001
      4.3127272135516348e-001 1.9627984795910276e+000
      6.8768830107305823e-001 -2.7129307478804465e-001
      7.4477381876940174e-001 9.1872115515761033e-001
      -1.2908298773881590e+000 -1.2407361874969114e+000
      1.6434195109021082e-001 -1.1896595899855489e+000
      2.0153920007754206e-001 -1.0651000187077673e+000
      -4.6746271195241523e-001 -9.4231564978123816e-001
      2.5468528647319153e+000 2.9217984781192480e-001
      1.5647820116943623e+000 -1.3662337181016102e+000
      3.6011725690741814e-001 -5.5373670296569061e-002
      1.5755036341034492e+000 -1.3425157607611258e+000
      -7.1231573015589411e-001 -5.0034697850660803e-001
      -7.6579168924839025e-001 9.6366406508461899e-001
      9.2779705060196538e-001 4.0984752057005120e-003
      -1.2401717817699274e+000 4.0401156650149128e-001
      2.0962110594724512e+000 2.8272526965133844e+000
      -1.3216791506485139e+000 9.8580135221047649e-001
      -4.2800477159648145e-002 -5.0823763081084639e-001
      -5.3567670662730138e-001 -1.6080556989143100e+000
      3.2766106504195502e-001 -1.0552460606904805e+000
      -6.5840762884838417e+000 -6.4924670565584086e-001
      -9.2958876533371829e-002 -3.4718735850176272e+000
      5.6926291540993867e-001 -7.8296582357953426e-001
      -9.3901135967965843e-002 -3.0289056196516944e+000
      4.1180274586437999e+000 2.6280278228640136e-001
      -4.0506797482806745e+000 -1.9458203715835687e+000
      -1.8437890088176450e+000 1.0278566272871668e+000
      1.2602711604969810e+000 2.5010370349080302e-001
      1.2677610173051770e+000 1.5679778642173308e+000
      1.6169015043489408e+000 -1.0394537197458249e+000
      1.7156609168190190e-001 1.9955928111049273e+000
      -5.4933749880229743e-001 -2.1748666955852114e+000
      1.0589654853631469e+000 -7.4303812867000008e-001
      7.5084776622558436e-001 -1.7589952840560545e+000
      -2.6040195377973006e+000 -9.2020889561563263e-002
      -1.6531327734507753e-001 4.5923247530182669e+000
      7.5392964045127664e-001 1.1459004646363488e-001
      2.3674515712875737e+000 -2.8323545790151861e-001
      -1.7069964014966987e+000 -2.7712625613509387e+000
      -1.1354896902096929e+000 1.1479805913501113e+000
      -3.0375251374500339e-001 1.1540229913796614e+000
      2.0709508189283323e-002 5.0894655524578125e-001
      -3.3263896241467655e-001 -1.1367072854945759e+000
      2.8437389467293361e-001 5.3957127552204476e-001
      -3.2412774684463922e-003 -9.1809347290861010e-001
      -9.2805248932155371e-001 3.3672328722638728e-001
      -5.5216674502470675e-001 -7.7377020466411883e-001
      -1.6503551464852213e+000 2.1367676376814901e+000
      2.2395145681875070e+000 -1.1346459358863452e+000
      2.8291344998288830e+000 3.9210038055707702e-001
      -4.3798766986030269e-001 1.5480419119670927e+000
      6.6555306871283992e-001 -1.0299614155851662e+000
      -8.6785354196828784e-002 2.8561587256391086e-001
      -6.7602775926178638e-001 -2.6448493807757614e+000
      -1.8771172250547168e+000 7.5900459523345942e-001
      4.0128207109319103e+000 -1.9097985961774437e+000
      -1.6841826355087204e+000 8.4427809405671683e-001
      -4.5028678074876372e-001 2.4872587914904343e-001
      -1.0577701645766169e+000 -2.2652707196823014e+000
      1.6581594613945077e-002 6.1130328341467766e-001
      -6.9239847376969594e+000 -7.8215826322201942e-001
      -1.3427017231243077e+000 -8.8687567891770036e-001
      -1.0740750721235706e+000 -8.2978873088166849e-001
      1.9489590240155557e+000 1.6178119139789247e+000
      2.1756156615221691e+000 -8.2182295313286935e-001
      -2.1840560260022324e+000 -4.7135133584850508e-001
      -3.1380137668767644e-001 -5.5087406021163188e-001
      -5.6791727061341157e-001 7.7593201856708138e-001
      1.3607418792357886e+000 -6.2736594192086192e-001
      2.2980946772336925e+000 -4.7631553607123894e-001
      1.4127046615069488e-001 2.2854578318541776e+000
      -1.1745484910694410e+000 -2.4335471562149271e+000
      5.9639977939493882e-001 -6.4844558445986433e-001
      2.7377681171776937e-002 4.8131403943533752e-001
      -2.5879929219307968e-001 5.1511375701082640e-001
      -3.3875617476776143e-001 1.7015995736119052e+000
      -1.0772258681210998e+000 6.2449579859616322e-001
      3.5637205126759772e+000 -1.7782609249586345e+000
      1.2856983530706030e+000 8.7056062336162909e-001
      -2.3918578259350984e-001 1.3189074221419206e-001
      -2.0558503618874380e-001 1.6352523391797397e-001
      1.5148350519870084e+000 1.0078068959835529e+000
      -7.9172236346136038e-001 3.9584870744010464e-001
      -8.1218564202429344e-001 1.6836359419689872e+000
      -9.2123715297157316e-001 -1.2722664806769770e+000
      -1.3704888784835223e-001 3.1059729084041621e-001
      -4.8388559310410256e-001 -1.3798421355615389e+000
      -1.4019770683793356e+000 2.1172333647637478e+000
      1.5295352832509668e+000 1.8770417890508227e-002
      -1.1238718195140553e+000 -5.8447904240506277e-002
      -1.6835233682829547e+000 1.8307161415137492e+000
      1.4527045495023254e+000 -1.8582663794658094e+000
      7.1944417682259565e-001 7.2573540809326487e-001
      -6.3414106019920868e-001 -4.1039645283832193e-001
      -2.3265242352819757e+000 6.6039313172006031e-001
      1.4926395663929102e+000 -2.9225464776731919e-001
      -8.3183666783801735e-001 1.6888220934925868e-001
      -1.8709493695197035e+000 5.7401068728313152e-002
      -5.5700047672158826e-001 3.6668016981072404e-001
      -2.1831488730545912e-002 1.7183489465966486e+000
      -6.5670207092363500e+000 -3.3030637179023103e-001
      -3.1307924985652380e+000 -2.1820742608425956e+000
      -1.0248374308202495e+000 -1.0116379648041687e+000
      1.7134548001519052e+000 1.3846213938148564e+000
      -1.0446952599260806e+000 -1.2538525285982542e+000
      -3.9640732115919368e+000 -1.6861176298573297e+000
      3.5528098485697673e-001 1.8008860661358134e-001
      -6.6500976450170179e-001 2.2481858032225319e-001
      1.7306612992403319e+000 -2.4453997078838845e+000
      3.6414218737695969e+000 -9.6078779872010545e-001
      2.7819678755169247e-001 1.8577716724043234e+000
      -1.0783572258318506e+000 -2.0114961535935687e+000
      1.2997947401169243e+000 -3.7567750273533207e-001
      -2.9039233771240708e-001 2.8191207782864018e+000
      -8.1108465049619616e-001 -2.2891365392628988e+000
      -7.5400060768422417e-001 1.3437981994393151e+000
      -2.6786711522346751e-001 2.2505496966810039e+000
      2.4257206615415874e+000 4.5818958233185714e-001
      9.0778228389526361e-001 9.8331187168729706e-001
      1.0604931096934618e+000 -1.0623243404226167e-002
      -9.6876559584884267e-002 1.0973335113237737e+000
      6.2317967391871021e-001 -1.3203394823417050e+000
      -6.7599537143832308e-002 -2.6091412244016743e-001
      1.1171562774219426e+000 1.2647176918627661e+000
      3.6829329185753230e+000 -1.6620444707168023e+000
      -6.7868336259832118e-001 2.8340423663026260e-001
      -4.4275224748435538e-002 -4.4519071385913955e-001
      -5.8718476542634679e-001 2.2999087079596041e+000
      -1.1877227093956648e+000 -1.0960551036487867e+000
      1.5072073603890117e+000 3.1900943560508344e-001
      -5.6982462117749433e-001 4.5955078767878677e-001
      1.5724200745530090e+000 -3.7760376664040259e-002
      -1.0067727883466662e+000 -5.7082832244075697e-002
      1.5034728108800048e+000 -5.8193277613604721e-001
      -1.2711186086465167e+000 5.7043098693422989e-001
      1.0460137356182060e+000 -4.3093682144017612e-002
      -2.6483631321017636e+000 -1.9428013434768335e-001
      1.2476063157216928e+000 -7.0052486062226782e-001
      1.2406502558110133e+000 -8.0772075104322083e-001
      3.4672717762929400e-001 1.2250585297426071e+000
      -7.8173707802886563e+000 -1.9443986495937509e+000
      -1.7984796078201808e+000 -2.2142864162195388e+000
      -1.5446017228296345e+000 -2.0979158970502074e+000
      7.2300696625151883e-001 1.7057619369094246e+000
      -2.2385023323448561e+000 9.3561952451637287e-001
      -2.8895761558771964e+000 -7.9203418314929630e-001
      -4.9875602390030876e-001 3.5818879673556270e-001
      -2.9276116884326436e-001 -1.0016610254081422e+000
      1.9224122239955770e+000 -1.5432914365500783e+000
      1.2819693913992511e+000 -1.1299387954465498e+000
      -1.9468047920065086e+000 7.5982852550724733e-001
      -9.5825301478134439e-001 3.9753186937824297e-001
      -1.7964662989828112e-001 -2.2363284386452628e-001
      4.7215080054354053e-001 2.9891912662907387e+000
      -9.9261555681723257e-001 -1.7843317851493976e+000
      -3.7946744602470905e-001 2.3636094195667048e+000
      -2.1040465849138665e-001 2.1980712393922452e+000
      3.3695744009594533e+000 6.1647001564219572e-001
      9.8337761972132132e-001 6.0437355406706816e-001
      -1.2326342195139020e+000 7.1194941533385658e-001
      1.0551028141352796e+000 5.2077468031051144e-001
      2.4296812880592961e-001 1.0380991936312864e+000
      -5.3648480921358044e-001 1.0608020332476851e+000
      9.2617121992792795e-001 -7.9662608401580326e-001
      1.5495517683214783e+000 -4.4042847797075652e-001
      -2.5260721385912555e-001 1.3863919997420052e-001
      -1.6696768829714431e-001 -3.0378510619700316e-001
      -2.6711023823299018e-001 2.9863265100797581e-001
      1.9986103625145217e+000 -4.0285253092672235e-001
      2.4874866411178691e+000 -1.9545269710687949e-001
      1.1756693816679511e+000 8.7961024453160097e-001
      3.9446171353381043e-001 -6.3280910445259952e-001
      1.4447855578712334e+000 -1.9695679575381822e-001
      2.7523516878157661e-001 -1.6092120205739799e+000
      -2.4372561487942290e+000 6.5968944380368477e-001
      3.7314989487091372e+000 4.9821635475955145e-001
      -2.0012362983505336e+000 2.6681634741133459e-001
      1.8802931759519614e+000 -1.1795200412655986e+000
      -9.9774951654336652e-001 1.6944996817764510e-001
      2.3945722778512671e-001 5.6993241958473129e-001
      -7.0613501319313885e+000 -5.0676421143291361e-001
      2.3435688197727211e+000 -4.8647329081153803e+000
      -1.4270385898939941e+000 -1.9676402932677746e+000
      -3.2463383336119520e+000 -4.2177908978865369e-001
      9.6329414707159722e-001 -2.3492450525286959e+000
      -4.7747873079713807e+000 -1.1522291968321294e+000
      -1.9557193303256850e+000 7.7409460580189327e-001
      1.7859504551480023e+000 1.4564106595290973e+000
      4.8638633785667651e-001 2.0533218791664276e-001
      2.8420333974935303e+000 -6.8658599156456901e-001
      6.2226454026781586e-001 9.7790616184583634e-001
      1.2674728586414412e+000 -1.1076179125402490e+000
      2.0372802655071522e+000 -1.5298081309263243e+000
      7.8782366880212484e-001 2.8323599121262988e+000
      -3.0750075022836669e+000 -5.1209323398633133e+000
      -5.3635364382475081e-001 2.3224543731859861e+000
      2.2378765690698219e+000 9.2603060980502472e-001
      2.7674936627045144e+000 2.0954465164517497e+000
      -6.5344338176904060e-001 -3.7864203544267192e+000
      1.7898153492179540e+000 5.9792829124531743e-001
      2.1939854468549993e+000 5.7133545313535261e-001
      -5.9159439905608824e-001 -1.6030668284077010e+000
      -4.6667144586254594e-001 1.6135732634751769e+000
      2.7618191827790151e+000 -5.0428102279325659e-001
      2.0894927872143811e+000 -1.0902576598929381e+000
      -8.8591463077040511e-001 -4.5919258281333405e-002
      -1.1769111895288888e+000 -1.9990870931370627e-001
      -1.5964061426103886e+000 5.8441020478233519e-001
      9.4013960907431512e-002 -2.4346044902434705e+000
      4.1853143974539515e+000 -1.9547813085527179e+000
      -5.0155302786268985e-001 2.5430113495620823e+000
      2.6653600630049223e+000 -2.4067596319266635e+000
      3.1730985036752375e+000 -1.8342832946985290e+000
      -1.7704406647473423e+000 -2.5099001757516409e-001
      -1.6364254066941548e+000 1.9330885332120712e-001
      1.6320025824327771e+000 -2.2977801713551451e+000
      -4.2631946952728084e-001 1.5565043728229888e-001
      1.3582021014741719e-001 -3.7366362083879096e-001
      -4.7640912800204455e-001 1.7637154317248882e-001
      2.6890177444371982e-001 3.5344847117198368e+000
      -6.3172222254367254e+000 5.4056796238464766e-001
      3.0179988762003367e+000 -4.9559959041154071e+000
      2.7732945626865596e-001 7.3849252048289249e-001
      -3.1061409638617943e+000 -2.6569869497839380e+000
      1.8579127075164108e+000 -1.0598661980873236e+000
      -4.0995828850334304e+000 5.7805245217898282e-001
      -3.9206577404839021e-001 -4.2310290483985313e-001
      -4.9745127038708101e-003 1.4936963768391545e-001
      3.1032361892658022e-001 -8.1120554195388506e-001
      1.8303719183972582e+000 2.6690004585286329e+000
      -2.6708142157934365e+000 2.8224387690666974e-001
      9.7130377100389176e-001 -3.3342683112888666e-001
      -7.6621926976008570e-001 -1.2139225694310403e+000
      2.8074240163388670e-001 -1.2310423058091351e+000
      -1.4348492609055212e+000 -8.6361682100686366e-001
      -3.2089660321784680e-001 1.1719489857773415e+000
      1.9066404809252115e+000 1.0711415179201664e+000
      4.5556662577904801e+000 3.2240221335279429e-001
      4.3470160353033932e-001 -1.7436951942880363e+000
      6.2385858380258244e-002 2.3275537923053466e+000
      1.2721856036803441e+000 5.1113167763662049e-001
      -1.8974327043692456e+000 1.1383715804466201e+000
      3.8833288518395720e-001 1.3437910009982035e+000
      -1.7275870864285596e+000 2.2293953645761685e-001
      1.1945517279647899e+000 -1.1557609918494764e-001
      1.1417164183823722e-001 3.9245890284723828e-001
      -1.2916572176988801e+000 -1.3398327671933576e+000
      -1.9080561546345209e+000 8.8918016806693534e-001
      -1.2711557064151697e+000 -4.9400236658352581e+000
      2.9119778548619992e+000 -1.1435712016988328e-001
      -9.4715756848876065e-001 -1.4724704972080191e-001
      1.6431296220021443e+000 -2.6707060572088834e+000
      3.7004355715574491e+000 6.0590638755318349e-001
      -1.3740802719672232e+000 -1.6863118530806775e+000
      -1.7948791446579522e+000 5.0928014727165150e-001
      1.8925495059074346e+000 3.4160355029614287e-002
      -1.8478549957523347e+000 2.9871014676278246e-001
      -3.5576613899217030e-001 -7.9585745775449357e-001
      1.7218665636029032e-001 1.2605403666133708e-001
      -5.0423865944469637e-001 6.6602858344276206e-001
      -6.2249010303908863e+000 1.2721559472506190e+000
      -6.2722169162215791e-001 7.4722755246309069e-001
      7.4298667905494709e-001 5.2495808778655451e-001
      5.9833388452906655e-001 -2.3132136628175233e+000
      1.0376206598061359e+000 6.8487300915987509e-002
      -2.2367009877397268e+000 9.6645721865012046e-001
      -7.7043895401457274e-001 -6.1987091249883031e-001
      3.3312838879233830e-001 -1.9286061220732043e-001
      -8.2234543163963572e-002 -2.7459915467574328e-002
      -5.1787144954448205e-001 1.0072268775444249e+000
      -2.1952317076565708e+000 1.1077841947114009e+000
      -9.9322294836356717e-001 -5.7664736700267016e-001
      2.6921983084041989e-001 -5.0031218842280356e-001
      -3.0082403034299193e-002 2.3012166800089280e+000
      -2.5233857994084741e-001 -3.9073695640821283e-002
      -7.2006432130942943e-001 4.0439357120473107e-001
      -8.0464265489267583e-001 1.7269785272824476e+000
      1.9644612554096568e+000 -8.3512261597332049e-001
      3.2915937895527780e-001 -8.5096059375911981e-001
      -3.7169916675923089e-003 1.1678450640496110e+000
      1.7331353405207714e-001 8.8647319255709611e-001
      1.4045009176811937e-001 1.0411524141133334e-001
      1.7923925559579106e+000 5.4326026792889759e-001
      3.1118456024820951e-001 9.2517021206650363e-001
      1.4273137909032458e+000 -1.2385710373029588e+000
      -1.1771099452130203e+000 1.2538095058796865e+000
      1.3812242623084359e-001 -2.5203961768517837e+000
      -7.8155378132599274e-001 8.5588234006942010e-001
      -6.3720807652598654e-001 -1.0262558492020248e+000
      2.6130785234442002e+000 1.0303377767420565e+000
      -6.2448951939914188e-001 -1.6094277066280434e+000
      -1.7623880572532797e+000 -8.9696468765601634e-001
      -7.7242583865557080e-001 9.4664249350797580e-001
      4.5966114990651469e-001 -1.6283288593563914e+000
      -1.9494615071819552e+000 -3.8206735869495079e-001
      1.7381454017231466e+000 1.2368342642816113e+000
      -1.2978664902313019e-002 -7.1065724723355195e-001
      -4.3133177726285954e-001 -9.5794155220826194e-001
      1.0378919884445033e+000 -1.9156686897764095e+000
      -9.5106483572707201e-001 -1.4733798333785006e+000
      -2.0314821699252281e+000 -5.8371754660417260e-002
      2.5052025755640667e-001 1.7804654053393068e+000
